digraph Tree {
node [shape=box] ;
0 [label="Metro_hong-kong <= 0.5\ngini = 0.1913\nsamples = 23658\nvalue = [21124, 2534]"] ;
1 [label="Type_immersive <= 0.5\ngini = 0.1822\nsamples = 21596\nvalue = [19407, 2189]"] ;
0 -> 1 [labeldistance=2.5, labelangle=45, headlabel="True"] ;
2 [label="Course_product-management-immersive <= 0.5\ngini = 0.1907\nsamples = 19375\nvalue = [17307, 2068]"] ;
1 -> 2 ;
3 [label="Startdate <= 20170166.0\ngini = 0.1999\nsamples = 17365\nvalue = [15409, 1956]"] ;
2 -> 3 ;
4 [label="Course_digital-marketing <= 0.5\ngini = 0.2116\nsamples = 14556\nvalue = [12805, 1751]"] ;
3 -> 4 ;
5 [label="DaysLeadtoEnroled <= 38.5\ngini = 0.2084\nsamples = 14319\nvalue = [12627, 1692]"] ;
4 -> 5 ;
6 [label="DaysInvoicetoEnrol <= 3.5\ngini = 0.1976\nsamples = 10968\nvalue = [9749, 1219]"] ;
5 -> 6 ;
7 [label="DaysEnroltoStart <= 5.5\ngini = 0.1876\nsamples = 8476\nvalue = [7588, 888]"] ;
6 -> 7 ;
8 [label="Price <= 12500.0\ngini = 0.2272\nsamples = 1500\nvalue = [1304, 196]"] ;
7 -> 8 ;
9 [label="Metro_new-york-city <= 0.5\ngini = 0.2195\nsamples = 1442\nvalue = [1261, 181]"] ;
8 -> 9 ;
10 [label="Course_ios-development <= 0.5\ngini = 0.1984\nsamples = 1173\nvalue = [1042, 131]"] ;
9 -> 10 ;
11 [label="PardotCategory_GA Course Leads <= 0.5\ngini = 0.2137\nsamples = 978\nvalue = [859, 119]"] ;
10 -> 11 ;
12 [label="Enddate <= 20141014.0\ngini = 0.207\nsamples = 955\nvalue = [843, 112]"] ;
11 -> 12 ;
13 [label="Course_data-science-immersive <= 0.5\ngini = 0.4297\nsamples = 16\nvalue = [11, 5]"] ;
12 -> 13 ;
14 [label="EnrolDate <= 15.5\ngini = 0.48\nsamples = 5\nvalue = [2, 3]"] ;
13 -> 14 ;
15 [label="EnrolDate <= 7.0\ngini = 0.4444\nsamples = 3\nvalue = [2, 1]"] ;
14 -> 15 ;
16 [label="gini = 0.0\nsamples = 1\nvalue = [0, 1]"] ;
15 -> 16 ;
17 [label="gini = 0.0\nsamples = 2\nvalue = [2, 0]"] ;
15 -> 17 ;
18 [label="gini = 0.0\nsamples = 2\nvalue = [0, 2]"] ;
14 -> 18 ;
19 [label="DaysLeadtoEnroled <= 5.0\ngini = 0.2975\nsamples = 11\nvalue = [9, 2]"] ;
13 -> 19 ;
20 [label="gini = 0.0\nsamples = 5\nvalue = [5, 0]"] ;
19 -> 20 ;
21 [label="DaysEnroltoStart <= 3.5\ngini = 0.4444\nsamples = 6\nvalue = [4, 2]"] ;
19 -> 21 ;
22 [label="EnrolHour <= 201407.5\ngini = 0.4444\nsamples = 3\nvalue = [1, 2]"] ;
21 -> 22 ;
23 [label="gini = 0.0\nsamples = 2\nvalue = [0, 2]"] ;
22 -> 23 ;
24 [label="gini = 0.0\nsamples = 1\nvalue = [1, 0]"] ;
22 -> 24 ;
25 [label="gini = 0.0\nsamples = 3\nvalue = [3, 0]"] ;
21 -> 25 ;
26 [label="EnrolDate <= 16.5\ngini = 0.2019\nsamples = 939\nvalue = [832, 107]"] ;
12 -> 26 ;
27 [label="Enddate <= 20170410.0\ngini = 0.1699\nsamples = 544\nvalue = [493, 51]"] ;
26 -> 27 ;
28 [label="Metro_online <= 0.5\ngini = 0.1672\nsamples = 543\nvalue = [493, 50]"] ;
27 -> 28 ;
29 [label="ApplicationType_lander <= 0.5\ngini = 0.158\nsamples = 532\nvalue = [486, 46]"] ;
28 -> 29 ;
30 [label="ApplicationType_info session <= 0.5\ngini = 0.1509\nsamples = 523\nvalue = [480, 43]"] ;
29 -> 30 ;
31 [label="ApplicationType_contact_admissions <= 0.5\ngini = 0.146\nsamples = 517\nvalue = [476, 41]"] ;
30 -> 31 ;
32 [label="Enddate <= 20150308.0\ngini = 0.141\nsamples = 511\nvalue = [472, 39]"] ;
31 -> 32 ;
33 [label="Startdate <= 20141018.0\ngini = 0.2243\nsamples = 101\nvalue = [88, 13]"] ;
32 -> 33 ;
34 [label="Enddate <= 20141068.0\ngini = 0.0935\nsamples = 61\nvalue = [58, 3]"] ;
33 -> 34 ;
35 [label="PhoneValid <= 0.5\ngini = 0.2907\nsamples = 17\nvalue = [14, 3]"] ;
34 -> 35 ;
36 [label="gini = 0.0\nsamples = 2\nvalue = [0, 2]"] ;
35 -> 36 ;
37 [label="EnrolDay_Sunday <= 0.5\ngini = 0.1244\nsamples = 15\nvalue = [14, 1]"] ;
35 -> 37 ;
38 [label="gini = 0.0\nsamples = 14\nvalue = [14, 0]"] ;
37 -> 38 ;
39 [label="gini = 0.0\nsamples = 1\nvalue = [0, 1]"] ;
37 -> 39 ;
40 [label="gini = 0.0\nsamples = 44\nvalue = [44, 0]"] ;
34 -> 40 ;
41 [label="PardotCategory_Unknown <= 0.5\ngini = 0.375\nsamples = 40\nvalue = [30, 10]"] ;
33 -> 41 ;
42 [label="DaysLeadtoEnroled <= 11.0\ngini = 0.2449\nsamples = 28\nvalue = [24, 4]"] ;
41 -> 42 ;
43 [label="PardotCategory_GA Front Row Signup <= 0.5\ngini = 0.0997\nsamples = 19\nvalue = [18, 1]"] ;
42 -> 43 ;
44 [label="gini = 0.0\nsamples = 15\nvalue = [15, 0]"] ;
43 -> 44 ;
45 [label="ApplicationType_get notified <= 0.5\ngini = 0.375\nsamples = 4\nvalue = [3, 1]"] ;
43 -> 45 ;
46 [label="gini = 0.0\nsamples = 1\nvalue = [0, 1]"] ;
45 -> 46 ;
47 [label="gini = 0.0\nsamples = 3\nvalue = [3, 0]"] ;
45 -> 47 ;
48 [label="ApplicationType_open house <= 0.5\ngini = 0.4444\nsamples = 9\nvalue = [6, 3]"] ;
42 -> 48 ;
49 [label="Enddate <= 20150306.0\ngini = 0.2449\nsamples = 7\nvalue = [6, 1]"] ;
48 -> 49 ;
50 [label="gini = 0.0\nsamples = 6\nvalue = [6, 0]"] ;
49 -> 50 ;
51 [label="gini = 0.0\nsamples = 1\nvalue = [0, 1]"] ;
49 -> 51 ;
52 [label="gini = 0.0\nsamples = 2\nvalue = [0, 2]"] ;
48 -> 52 ;
53 [label="Enddate <= 20150224.0\ngini = 0.5\nsamples = 12\nvalue = [6, 6]"] ;
41 -> 53 ;
54 [label="EnrolDate <= 14.5\ngini = 0.4444\nsamples = 9\nvalue = [3, 6]"] ;
53 -> 54 ;
55 [label="ApplicationType_request info <= 0.5\ngini = 0.2449\nsamples = 7\nvalue = [1, 6]"] ;
54 -> 55 ;
56 [label="gini = 0.0\nsamples = 6\nvalue = [0, 6]"] ;
55 -> 56 ;
57 [label="gini = 0.0\nsamples = 1\nvalue = [1, 0]"] ;
55 -> 57 ;
58 [label="gini = 0.0\nsamples = 2\nvalue = [2, 0]"] ;
54 -> 58 ;
59 [label="gini = 0.0\nsamples = 3\nvalue = [3, 0]"] ;
53 -> 59 ;
60 [label="Course_back-end-web-development <= 0.5\ngini = 0.1188\nsamples = 410\nvalue = [384, 26]"] ;
32 -> 60 ;
61 [label="ExpectedPayment_Student / Self <= 0.5\ngini = 0.1012\nsamples = 374\nvalue = [354, 20]"] ;
60 -> 61 ;
62 [label="PardotCategory_GA Dash <= 0.5\ngini = 0.0933\nsamples = 367\nvalue = [349, 18]"] ;
61 -> 62 ;
63 [label="EnrolDate <= 4.5\ngini = 0.089\nsamples = 364\nvalue = [347, 17]"] ;
62 -> 63 ;
64 [label="EnrolDay_Sunday <= 0.5\ngini = 0.0152\nsamples = 131\nvalue = [130, 1]"] ;
63 -> 64 ;
65 [label="gini = 0.0\nsamples = 114\nvalue = [114, 0]"] ;
64 -> 65 ;
66 [label="Metro_london <= 0.5\ngini = 0.1107\nsamples = 17\nvalue = [16, 1]"] ;
64 -> 66 ;
67 [label="gini = 0.0\nsamples = 15\nvalue = [15, 0]"] ;
66 -> 67 ;
68 [label="EnrolDate <= 2.5\ngini = 0.5\nsamples = 2\nvalue = [1, 1]"] ;
66 -> 68 ;
69 [label="gini = 0.0\nsamples = 1\nvalue = [1, 0]"] ;
68 -> 69 ;
70 [label="gini = 0.0\nsamples = 1\nvalue = [0, 1]"] ;
68 -> 70 ;
71 [label="PardotCategory_GA Circuits Leads <= 0.5\ngini = 0.1279\nsamples = 233\nvalue = [217, 16]"] ;
63 -> 71 ;
72 [label="PardotCategory_Uncategorized <= 0.5\ngini = 0.1157\nsamples = 227\nvalue = [213, 14]"] ;
71 -> 72 ;
73 [label="Metro_atlanta <= 0.5\ngini = 0.0876\nsamples = 196\nvalue = [187, 9]"] ;
72 -> 73 ;
74 [label="PardotCategory_Partner Event <= 0.5\ngini = 0.0728\nsamples = 185\nvalue = [178, 7]"] ;
73 -> 74 ;
75 [label="Month <= 31.5\ngini = 0.0555\nsamples = 175\nvalue = [170, 5]"] ;
74 -> 75 ;
76 [label="Year <= 0.385\ngini = 0.0189\nsamples = 105\nvalue = [104, 1]"] ;
75 -> 76 ;
77 [label="Year <= 0.3\ngini = 0.2188\nsamples = 8\nvalue = [7, 1]"] ;
76 -> 77 ;
78 [label="gini = 0.0\nsamples = 7\nvalue = [7, 0]"] ;
77 -> 78 ;
79 [label="gini = 0.0\nsamples = 1\nvalue = [0, 1]"] ;
77 -> 79 ;
80 [label="gini = 0.0\nsamples = 97\nvalue = [97, 0]"] ;
76 -> 80 ;
81 [label="Month <= 32.5\ngini = 0.1078\nsamples = 70\nvalue = [66, 4]"] ;
75 -> 81 ;
82 [label="gini = 0.0\nsamples = 1\nvalue = [0, 1]"] ;
81 -> 82 ;
83 [label="PardotCategory_GA Front Row Signup <= 0.5\ngini = 0.0832\nsamples = 69\nvalue = [66, 3]"] ;
81 -> 83 ;
84 [label="EnrolDay_Sunday <= 0.5\ngini = 0.0588\nsamples = 66\nvalue = [64, 2]"] ;
83 -> 84 ;
85 [label="Enddate <= 20151110.0\ngini = 0.0328\nsamples = 60\nvalue = [59, 1]"] ;
84 -> 85 ;
86 [label="Price <= 3150.0\ngini = 0.1975\nsamples = 9\nvalue = [8, 1]"] ;
85 -> 86 ;
87 [label="EnrolDay_Thursday <= 0.5\ngini = 0.5\nsamples = 2\nvalue = [1, 1]"] ;
86 -> 87 ;
88 [label="gini = 0.0\nsamples = 1\nvalue = [0, 1]"] ;
87 -> 88 ;
89 [label="gini = 0.0\nsamples = 1\nvalue = [1, 0]"] ;
87 -> 89 ;
90 [label="gini = 0.0\nsamples = 7\nvalue = [7, 0]"] ;
86 -> 90 ;
91 [label="gini = 0.0\nsamples = 51\nvalue = [51, 0]"] ;
85 -> 91 ;
92 [label="EnrolDate <= 15.5\ngini = 0.2778\nsamples = 6\nvalue = [5, 1]"] ;
84 -> 92 ;
93 [label="gini = 0.0\nsamples = 5\nvalue = [5, 0]"] ;
92 -> 93 ;
94 [label="gini = 0.0\nsamples = 1\nvalue = [0, 1]"] ;
92 -> 94 ;
95 [label="SpeedtoLead <= 0.5\ngini = 0.4444\nsamples = 3\nvalue = [2, 1]"] ;
83 -> 95 ;
96 [label="gini = 0.0\nsamples = 1\nvalue = [0, 1]"] ;
95 -> 96 ;
97 [label="gini = 0.0\nsamples = 2\nvalue = [2, 0]"] ;
95 -> 97 ;
98 [label="EnrolDate <= 15.5\ngini = 0.32\nsamples = 10\nvalue = [8, 2]"] ;
74 -> 98 ;
99 [label="gini = 0.0\nsamples = 7\nvalue = [7, 0]"] ;
98 -> 99 ;
100 [label="ApplicationType_financing contact us <= 0.5\ngini = 0.4444\nsamples = 3\nvalue = [1, 2]"] ;
98 -> 100 ;
101 [label="gini = 0.0\nsamples = 2\nvalue = [0, 2]"] ;
100 -> 101 ;
102 [label="gini = 0.0\nsamples = 1\nvalue = [1, 0]"] ;
100 -> 102 ;
103 [label="DaysEnroltoStart <= 2.5\ngini = 0.2975\nsamples = 11\nvalue = [9, 2]"] ;
73 -> 103 ;
104 [label="gini = 0.0\nsamples = 1\nvalue = [0, 1]"] ;
103 -> 104 ;
105 [label="Month <= 2.5\ngini = 0.18\nsamples = 10\nvalue = [9, 1]"] ;
103 -> 105 ;
106 [label="gini = 0.0\nsamples = 1\nvalue = [0, 1]"] ;
105 -> 106 ;
107 [label="gini = 0.0\nsamples = 9\nvalue = [9, 0]"] ;
105 -> 107 ;
108 [label="ApplicationType_open house <= 0.5\ngini = 0.2706\nsamples = 31\nvalue = [26, 5]"] ;
72 -> 108 ;
109 [label="Month <= 23.5\ngini = 0.4592\nsamples = 14\nvalue = [9, 5]"] ;
108 -> 109 ;
110 [label="Metro_los-angeles <= 0.5\ngini = 0.32\nsamples = 10\nvalue = [8, 2]"] ;
109 -> 110 ;
111 [label="gini = 0.0\nsamples = 7\nvalue = [7, 0]"] ;
110 -> 111 ;
112 [label="Course_data-science-immersive <= 0.5\ngini = 0.4444\nsamples = 3\nvalue = [1, 2]"] ;
110 -> 112 ;
113 [label="gini = 0.0\nsamples = 1\nvalue = [1, 0]"] ;
112 -> 113 ;
114 [label="gini = 0.0\nsamples = 2\nvalue = [0, 2]"] ;
112 -> 114 ;
115 [label="EnrolDate <= 15.0\ngini = 0.375\nsamples = 4\nvalue = [1, 3]"] ;
109 -> 115 ;
116 [label="gini = 0.0\nsamples = 3\nvalue = [0, 3]"] ;
115 -> 116 ;
117 [label="gini = 0.0\nsamples = 1\nvalue = [1, 0]"] ;
115 -> 117 ;
118 [label="gini = 0.0\nsamples = 17\nvalue = [17, 0]"] ;
108 -> 118 ;
119 [label="EnrolDate <= 13.0\ngini = 0.4444\nsamples = 6\nvalue = [4, 2]"] ;
71 -> 119 ;
120 [label="gini = 0.0\nsamples = 2\nvalue = [0, 2]"] ;
119 -> 120 ;
121 [label="gini = 0.0\nsamples = 4\nvalue = [4, 0]"] ;
119 -> 121 ;
122 [label="Enddate <= 20160524.0\ngini = 0.4444\nsamples = 3\nvalue = [2, 1]"] ;
62 -> 122 ;
123 [label="gini = 0.0\nsamples = 1\nvalue = [0, 1]"] ;
122 -> 123 ;
124 [label="gini = 0.0\nsamples = 2\nvalue = [2, 0]"] ;
122 -> 124 ;
125 [label="EnrolDate <= 15.5\ngini = 0.4082\nsamples = 7\nvalue = [5, 2]"] ;
61 -> 125 ;
126 [label="EnrolDay_Saturday <= 0.5\ngini = 0.2778\nsamples = 6\nvalue = [5, 1]"] ;
125 -> 126 ;
127 [label="gini = 0.0\nsamples = 4\nvalue = [4, 0]"] ;
126 -> 127 ;
128 [label="EnrolHour <= 201558.0\ngini = 0.5\nsamples = 2\nvalue = [1, 1]"] ;
126 -> 128 ;
129 [label="gini = 0.0\nsamples = 1\nvalue = [0, 1]"] ;
128 -> 129 ;
130 [label="gini = 0.0\nsamples = 1\nvalue = [1, 0]"] ;
128 -> 130 ;
131 [label="gini = 0.0\nsamples = 1\nvalue = [0, 1]"] ;
125 -> 131 ;
132 [label="Month <= 2.5\ngini = 0.2778\nsamples = 36\nvalue = [30, 6]"] ;
60 -> 132 ;
133 [label="gini = 0.0\nsamples = 1\nvalue = [0, 1]"] ;
132 -> 133 ;
134 [label="ApplicationType_referral <= 0.5\ngini = 0.2449\nsamples = 35\nvalue = [30, 5]"] ;
132 -> 134 ;
135 [label="Metro_san-francisco <= 0.5\ngini = 0.2076\nsamples = 34\nvalue = [30, 4]"] ;
134 -> 135 ;
136 [label="EnrolDate <= 5.5\ngini = 0.1244\nsamples = 30\nvalue = [28, 2]"] ;
135 -> 136 ;
137 [label="EnrolDate <= 4.5\ngini = 0.32\nsamples = 10\nvalue = [8, 2]"] ;
136 -> 137 ;
138 [label="PardotCategory_Unknown <= 0.5\ngini = 0.1975\nsamples = 9\nvalue = [8, 1]"] ;
137 -> 138 ;
139 [label="gini = 0.0\nsamples = 8\nvalue = [8, 0]"] ;
138 -> 139 ;
140 [label="gini = 0.0\nsamples = 1\nvalue = [0, 1]"] ;
138 -> 140 ;
141 [label="gini = 0.0\nsamples = 1\nvalue = [0, 1]"] ;
137 -> 141 ;
142 [label="gini = 0.0\nsamples = 20\nvalue = [20, 0]"] ;
136 -> 142 ;
143 [label="PardotCategory_Uncategorized <= 0.5\ngini = 0.5\nsamples = 4\nvalue = [2, 2]"] ;
135 -> 143 ;
144 [label="gini = 0.0\nsamples = 2\nvalue = [0, 2]"] ;
143 -> 144 ;
145 [label="gini = 0.0\nsamples = 2\nvalue = [2, 0]"] ;
143 -> 145 ;
146 [label="gini = 0.0\nsamples = 1\nvalue = [0, 1]"] ;
134 -> 146 ;
147 [label="DaysEnroltoStart <= 2.5\ngini = 0.4444\nsamples = 6\nvalue = [4, 2]"] ;
31 -> 147 ;
148 [label="gini = 0.0\nsamples = 2\nvalue = [0, 2]"] ;
147 -> 148 ;
149 [label="gini = 0.0\nsamples = 4\nvalue = [4, 0]"] ;
147 -> 149 ;
150 [label="PardotCategory_Unknown <= 0.5\ngini = 0.4444\nsamples = 6\nvalue = [4, 2]"] ;
30 -> 150 ;
151 [label="gini = 0.0\nsamples = 4\nvalue = [4, 0]"] ;
150 -> 151 ;
152 [label="gini = 0.0\nsamples = 2\nvalue = [0, 2]"] ;
150 -> 152 ;
153 [label="SpeedtoLead <= 0.5\ngini = 0.4444\nsamples = 9\nvalue = [6, 3]"] ;
29 -> 153 ;
154 [label="Course_front-end-web-development <= 0.5\ngini = 0.2449\nsamples = 7\nvalue = [6, 1]"] ;
153 -> 154 ;
155 [label="gini = 0.0\nsamples = 6\nvalue = [6, 0]"] ;
154 -> 155 ;
156 [label="gini = 0.0\nsamples = 1\nvalue = [0, 1]"] ;
154 -> 156 ;
157 [label="gini = 0.0\nsamples = 2\nvalue = [0, 2]"] ;
153 -> 157 ;
158 [label="ApplicationType_request info <= 0.5\ngini = 0.4628\nsamples = 11\nvalue = [7, 4]"] ;
28 -> 158 ;
159 [label="EnrolDay_Friday <= 0.5\ngini = 0.3457\nsamples = 9\nvalue = [7, 2]"] ;
158 -> 159 ;
160 [label="Month <= 13.5\ngini = 0.2188\nsamples = 8\nvalue = [7, 1]"] ;
159 -> 160 ;
161 [label="gini = 0.0\nsamples = 1\nvalue = [0, 1]"] ;
160 -> 161 ;
162 [label="gini = 0.0\nsamples = 7\nvalue = [7, 0]"] ;
160 -> 162 ;
163 [label="gini = 0.0\nsamples = 1\nvalue = [0, 1]"] ;
159 -> 163 ;
164 [label="gini = 0.0\nsamples = 2\nvalue = [0, 2]"] ;
158 -> 164 ;
165 [label="gini = 0.0\nsamples = 1\nvalue = [0, 1]"] ;
27 -> 165 ;
166 [label="Metro_los-angeles <= 0.5\ngini = 0.2433\nsamples = 395\nvalue = [339, 56]"] ;
26 -> 166 ;
167 [label="Month <= 48.5\ngini = 0.3184\nsamples = 151\nvalue = [121, 30]"] ;
166 -> 167 ;
168 [label="DaysLeadtoEnroled <= 0.5\ngini = 0.2999\nsamples = 147\nvalue = [120, 27]"] ;
167 -> 168 ;
169 [label="ExpectedPayment_Scholarship <= 0.5\ngini = 0.497\nsamples = 13\nvalue = [7, 6]"] ;
168 -> 169 ;
170 [label="Enddate <= 20160202.0\ngini = 0.48\nsamples = 10\nvalue = [4, 6]"] ;
169 -> 170 ;
171 [label="gini = 0.0\nsamples = 4\nvalue = [0, 4]"] ;
170 -> 171 ;
172 [label="PardotCategory_Website <= 0.5\ngini = 0.4444\nsamples = 6\nvalue = [4, 2]"] ;
170 -> 172 ;
173 [label="gini = 0.0\nsamples = 3\nvalue = [3, 0]"] ;
172 -> 173 ;
174 [label="Month <= 31.5\ngini = 0.4444\nsamples = 3\nvalue = [1, 2]"] ;
172 -> 174 ;
175 [label="gini = 0.0\nsamples = 2\nvalue = [0, 2]"] ;
174 -> 175 ;
176 [label="gini = 0.0\nsamples = 1\nvalue = [1, 0]"] ;
174 -> 176 ;
177 [label="gini = 0.0\nsamples = 3\nvalue = [3, 0]"] ;
169 -> 177 ;
178 [label="Month <= 37.5\ngini = 0.2643\nsamples = 134\nvalue = [113, 21]"] ;
168 -> 178 ;
179 [label="Month <= 26.5\ngini = 0.3427\nsamples = 82\nvalue = [64, 18]"] ;
178 -> 179 ;
180 [label="DaysLeadtoEnroled <= 36.5\ngini = 0.2378\nsamples = 58\nvalue = [50, 8]"] ;
179 -> 180 ;
181 [label="Year <= 1.14\ngini = 0.2155\nsamples = 57\nvalue = [50, 7]"] ;
180 -> 181 ;
182 [label="Course_data-science <= 0.5\ngini = 0.4898\nsamples = 7\nvalue = [4, 3]"] ;
181 -> 182 ;
183 [label="gini = 0.0\nsamples = 3\nvalue = [3, 0]"] ;
182 -> 183 ;
184 [label="Startdate <= 20165372.0\ngini = 0.375\nsamples = 4\nvalue = [1, 3]"] ;
182 -> 184 ;
185 [label="gini = 0.0\nsamples = 3\nvalue = [0, 3]"] ;
184 -> 185 ;
186 [label="gini = 0.0\nsamples = 1\nvalue = [1, 0]"] ;
184 -> 186 ;
187 [label="Enddate <= 20170326.0\ngini = 0.1472\nsamples = 50\nvalue = [46, 4]"] ;
181 -> 187 ;
188 [label="PardotCategory_Sweepstake <= 0.5\ngini = 0.1172\nsamples = 48\nvalue = [45, 3]"] ;
187 -> 188 ;
189 [label="PardotCategory_GA Front Row Signup <= 0.5\ngini = 0.0832\nsamples = 46\nvalue = [44, 2]"] ;
188 -> 189 ;
190 [label="Year <= 2.34\ngini = 0.0454\nsamples = 43\nvalue = [42, 1]"] ;
189 -> 190 ;
191 [label="Year <= 1.81\ngini = 0.2778\nsamples = 6\nvalue = [5, 1]"] ;
190 -> 191 ;
192 [label="gini = 0.0\nsamples = 5\nvalue = [5, 0]"] ;
191 -> 192 ;
193 [label="gini = 0.0\nsamples = 1\nvalue = [0, 1]"] ;
191 -> 193 ;
194 [label="gini = 0.0\nsamples = 37\nvalue = [37, 0]"] ;
190 -> 194 ;
195 [label="Month <= 15.0\ngini = 0.4444\nsamples = 3\nvalue = [2, 1]"] ;
189 -> 195 ;
196 [label="gini = 0.0\nsamples = 2\nvalue = [2, 0]"] ;
195 -> 196 ;
197 [label="gini = 0.0\nsamples = 1\nvalue = [0, 1]"] ;
195 -> 197 ;
198 [label="DaysLeadtoEnroled <= 12.5\ngini = 0.5\nsamples = 2\nvalue = [1, 1]"] ;
188 -> 198 ;
199 [label="gini = 0.0\nsamples = 1\nvalue = [0, 1]"] ;
198 -> 199 ;
200 [label="gini = 0.0\nsamples = 1\nvalue = [1, 0]"] ;
198 -> 200 ;
201 [label="EnrolDate <= 18.5\ngini = 0.5\nsamples = 2\nvalue = [1, 1]"] ;
187 -> 201 ;
202 [label="gini = 0.0\nsamples = 1\nvalue = [1, 0]"] ;
201 -> 202 ;
203 [label="gini = 0.0\nsamples = 1\nvalue = [0, 1]"] ;
201 -> 203 ;
204 [label="gini = 0.0\nsamples = 1\nvalue = [0, 1]"] ;
180 -> 204 ;
205 [label="Course_data-science-immersive <= 0.5\ngini = 0.4861\nsamples = 24\nvalue = [14, 10]"] ;
179 -> 205 ;
206 [label="EnrolDate <= 20.0\ngini = 0.4012\nsamples = 18\nvalue = [13, 5]"] ;
205 -> 206 ;
207 [label="PardotCategory_Unknown <= 0.5\ngini = 0.4938\nsamples = 9\nvalue = [4, 5]"] ;
206 -> 207 ;
208 [label="DaysLeadtoEnroled <= 28.0\ngini = 0.2778\nsamples = 6\nvalue = [1, 5]"] ;
207 -> 208 ;
209 [label="gini = 0.0\nsamples = 5\nvalue = [0, 5]"] ;
208 -> 209 ;
210 [label="gini = 0.0\nsamples = 1\nvalue = [1, 0]"] ;
208 -> 210 ;
211 [label="gini = 0.0\nsamples = 3\nvalue = [3, 0]"] ;
207 -> 211 ;
212 [label="gini = 0.0\nsamples = 9\nvalue = [9, 0]"] ;
206 -> 212 ;
213 [label="APAC <= 0.5\ngini = 0.2778\nsamples = 6\nvalue = [1, 5]"] ;
205 -> 213 ;
214 [label="gini = 0.0\nsamples = 5\nvalue = [0, 5]"] ;
213 -> 214 ;
215 [label="gini = 0.0\nsamples = 1\nvalue = [1, 0]"] ;
213 -> 215 ;
216 [label="Year <= 0.03\ngini = 0.1087\nsamples = 52\nvalue = [49, 3]"] ;
178 -> 216 ;
217 [label="gini = 0.0\nsamples = 1\nvalue = [0, 1]"] ;
216 -> 217 ;
218 [label="PardotCategory_GA Circuits Leads <= 0.5\ngini = 0.0754\nsamples = 51\nvalue = [49, 2]"] ;
216 -> 218 ;
219 [label="Metro_singapore <= 0.5\ngini = 0.0408\nsamples = 48\nvalue = [47, 1]"] ;
218 -> 219 ;
220 [label="gini = 0.0\nsamples = 41\nvalue = [41, 0]"] ;
219 -> 220 ;
221 [label="Month <= 45.0\ngini = 0.2449\nsamples = 7\nvalue = [6, 1]"] ;
219 -> 221 ;
222 [label="gini = 0.0\nsamples = 5\nvalue = [5, 0]"] ;
221 -> 222 ;
223 [label="PardotCategory_Uncategorized <= 0.5\ngini = 0.5\nsamples = 2\nvalue = [1, 1]"] ;
221 -> 223 ;
224 [label="gini = 0.0\nsamples = 1\nvalue = [1, 0]"] ;
223 -> 224 ;
225 [label="gini = 0.0\nsamples = 1\nvalue = [0, 1]"] ;
223 -> 225 ;
226 [label="DaysEnroltoStart <= 2.5\ngini = 0.4444\nsamples = 3\nvalue = [2, 1]"] ;
218 -> 226 ;
227 [label="gini = 0.0\nsamples = 1\nvalue = [0, 1]"] ;
226 -> 227 ;
228 [label="gini = 0.0\nsamples = 2\nvalue = [2, 0]"] ;
226 -> 228 ;
229 [label="PardotCategory_Uncategorized <= 0.5\ngini = 0.375\nsamples = 4\nvalue = [1, 3]"] ;
167 -> 229 ;
230 [label="gini = 0.0\nsamples = 3\nvalue = [0, 3]"] ;
229 -> 230 ;
231 [label="gini = 0.0\nsamples = 1\nvalue = [1, 0]"] ;
229 -> 231 ;
232 [label="Course_javascript-development <= 0.5\ngini = 0.1904\nsamples = 244\nvalue = [218, 26]"] ;
166 -> 232 ;
233 [label="DaysEnroltoStart <= 4.5\ngini = 0.1846\nsamples = 243\nvalue = [218, 25]"] ;
232 -> 233 ;
234 [label="PardotCategory_CWE Purchase <= 0.5\ngini = 0.2227\nsamples = 188\nvalue = [164, 24]"] ;
233 -> 234 ;
235 [label="Startdate <= 20150326.0\ngini = 0.2051\nsamples = 181\nvalue = [160, 21]"] ;
234 -> 235 ;
236 [label="Startdate <= 20150310.0\ngini = 0.2927\nsamples = 73\nvalue = [60, 13]"] ;
235 -> 236 ;
237 [label="EnrolDay_Monday <= 0.5\ngini = 0.2449\nsamples = 70\nvalue = [60, 10]"] ;
236 -> 237 ;
238 [label="ExpectedPayment_Scholarship <= 0.5\ngini = 0.2268\nsamples = 69\nvalue = [60, 9]"] ;
237 -> 238 ;
239 [label="Enddate <= 20150264.0\ngini = 0.375\nsamples = 24\nvalue = [18, 6]"] ;
238 -> 239 ;
240 [label="gini = 0.0\nsamples = 3\nvalue = [0, 3]"] ;
239 -> 240 ;
241 [label="Price <= 3700.0\ngini = 0.2449\nsamples = 21\nvalue = [18, 3]"] ;
239 -> 241 ;
242 [label="PardotCategory_GA Front Row Signup <= 0.5\ngini = 0.1244\nsamples = 15\nvalue = [14, 1]"] ;
241 -> 242 ;
243 [label="gini = 0.0\nsamples = 13\nvalue = [13, 0]"] ;
242 -> 243 ;
244 [label="Enddate <= 20150312.0\ngini = 0.5\nsamples = 2\nvalue = [1, 1]"] ;
242 -> 244 ;
245 [label="gini = 0.0\nsamples = 1\nvalue = [0, 1]"] ;
244 -> 245 ;
246 [label="gini = 0.0\nsamples = 1\nvalue = [1, 0]"] ;
244 -> 246 ;
247 [label="EnrolDate <= 18.5\ngini = 0.4444\nsamples = 6\nvalue = [4, 2]"] ;
241 -> 247 ;
248 [label="EnrolWeek <= 2014.5\ngini = 0.4444\nsamples = 3\nvalue = [1, 2]"] ;
247 -> 248 ;
249 [label="gini = 0.0\nsamples = 1\nvalue = [1, 0]"] ;
248 -> 249 ;
250 [label="gini = 0.0\nsamples = 2\nvalue = [0, 2]"] ;
248 -> 250 ;
251 [label="gini = 0.0\nsamples = 3\nvalue = [3, 0]"] ;
247 -> 251 ;
252 [label="Course_data-science-immersive <= 0.5\ngini = 0.1244\nsamples = 45\nvalue = [42, 3]"] ;
238 -> 252 ;
253 [label="Metro_washington-dc <= 0.5\ngini = 0.0526\nsamples = 37\nvalue = [36, 1]"] ;
252 -> 253 ;
254 [label="gini = 0.0\nsamples = 34\nvalue = [34, 0]"] ;
253 -> 254 ;
255 [label="DaysLeadtoEnroled <= 5.5\ngini = 0.4444\nsamples = 3\nvalue = [2, 1]"] ;
253 -> 255 ;
256 [label="gini = 0.0\nsamples = 1\nvalue = [0, 1]"] ;
255 -> 256 ;
257 [label="gini = 0.0\nsamples = 2\nvalue = [2, 0]"] ;
255 -> 257 ;
258 [label="ApplicationType_open house <= 0.5\ngini = 0.375\nsamples = 8\nvalue = [6, 2]"] ;
252 -> 258 ;
259 [label="ApplicationType_request info <= 0.5\ngini = 0.2449\nsamples = 7\nvalue = [6, 1]"] ;
258 -> 259 ;
260 [label="gini = 0.0\nsamples = 6\nvalue = [6, 0]"] ;
259 -> 260 ;
261 [label="gini = 0.0\nsamples = 1\nvalue = [0, 1]"] ;
259 -> 261 ;
262 [label="gini = 0.0\nsamples = 1\nvalue = [0, 1]"] ;
258 -> 262 ;
263 [label="gini = 0.0\nsamples = 1\nvalue = [0, 1]"] ;
237 -> 263 ;
264 [label="gini = 0.0\nsamples = 3\nvalue = [0, 3]"] ;
236 -> 264 ;
265 [label="PardotCategory_Twitter Acquisition <= 0.5\ngini = 0.1372\nsamples = 108\nvalue = [100, 8]"] ;
235 -> 265 ;
266 [label="EnrolDay_Thursday <= 0.5\ngini = 0.1223\nsamples = 107\nvalue = [100, 7]"] ;
265 -> 266 ;
267 [label="DaysEnroltoStart <= 3.5\ngini = 0.0799\nsamples = 96\nvalue = [92, 4]"] ;
266 -> 267 ;
268 [label="Course_data-science-immersive <= 0.5\ngini = 0.0253\nsamples = 78\nvalue = [77, 1]"] ;
267 -> 268 ;
269 [label="gini = 0.0\nsamples = 63\nvalue = [63, 0]"] ;
268 -> 269 ;
270 [label="ApplicationType_request info <= 0.5\ngini = 0.1244\nsamples = 15\nvalue = [14, 1]"] ;
268 -> 270 ;
271 [label="gini = 0.0\nsamples = 12\nvalue = [12, 0]"] ;
270 -> 271 ;
272 [label="ApplicationType_open house <= 0.5\ngini = 0.4444\nsamples = 3\nvalue = [2, 1]"] ;
270 -> 272 ;
273 [label="gini = 0.0\nsamples = 2\nvalue = [2, 0]"] ;
272 -> 273 ;
274 [label="gini = 0.0\nsamples = 1\nvalue = [0, 1]"] ;
272 -> 274 ;
275 [label="Month <= 48.5\ngini = 0.2778\nsamples = 18\nvalue = [15, 3]"] ;
267 -> 275 ;
276 [label="PardotCategory_GA Circuits Leads <= 0.5\ngini = 0.2076\nsamples = 17\nvalue = [15, 2]"] ;
275 -> 276 ;
277 [label="PardotCategory_Uncategorized <= 0.5\ngini = 0.1172\nsamples = 16\nvalue = [15, 1]"] ;
276 -> 277 ;
278 [label="gini = 0.0\nsamples = 14\nvalue = [14, 0]"] ;
277 -> 278 ;
279 [label="ApplicationType_financing contact us <= 0.5\ngini = 0.5\nsamples = 2\nvalue = [1, 1]"] ;
277 -> 279 ;
280 [label="gini = 0.0\nsamples = 1\nvalue = [0, 1]"] ;
279 -> 280 ;
281 [label="gini = 0.0\nsamples = 1\nvalue = [1, 0]"] ;
279 -> 281 ;
282 [label="gini = 0.0\nsamples = 1\nvalue = [0, 1]"] ;
276 -> 282 ;
283 [label="gini = 0.0\nsamples = 1\nvalue = [0, 1]"] ;
275 -> 283 ;
284 [label="DaysEnroltoStart <= 2.5\ngini = 0.3967\nsamples = 11\nvalue = [8, 3]"] ;
266 -> 284 ;
285 [label="gini = 0.0\nsamples = 6\nvalue = [6, 0]"] ;
284 -> 285 ;
286 [label="Course_data-science <= 0.5\ngini = 0.48\nsamples = 5\nvalue = [2, 3]"] ;
284 -> 286 ;
287 [label="Month <= 40.5\ngini = 0.4444\nsamples = 3\nvalue = [2, 1]"] ;
286 -> 287 ;
288 [label="gini = 0.0\nsamples = 2\nvalue = [2, 0]"] ;
287 -> 288 ;
289 [label="gini = 0.0\nsamples = 1\nvalue = [0, 1]"] ;
287 -> 289 ;
290 [label="gini = 0.0\nsamples = 2\nvalue = [0, 2]"] ;
286 -> 290 ;
291 [label="gini = 0.0\nsamples = 1\nvalue = [0, 1]"] ;
265 -> 291 ;
292 [label="EnrolDay_Sunday <= 0.5\ngini = 0.4898\nsamples = 7\nvalue = [4, 3]"] ;
234 -> 292 ;
293 [label="Enddate <= 20160614.0\ngini = 0.375\nsamples = 4\nvalue = [1, 3]"] ;
292 -> 293 ;
294 [label="gini = 0.0\nsamples = 3\nvalue = [0, 3]"] ;
293 -> 294 ;
295 [label="gini = 0.0\nsamples = 1\nvalue = [1, 0]"] ;
293 -> 295 ;
296 [label="gini = 0.0\nsamples = 3\nvalue = [3, 0]"] ;
292 -> 296 ;
297 [label="Month <= 4.0\ngini = 0.0357\nsamples = 55\nvalue = [54, 1]"] ;
233 -> 297 ;
298 [label="EnrolDate <= 19.5\ngini = 0.32\nsamples = 5\nvalue = [4, 1]"] ;
297 -> 298 ;
299 [label="gini = 0.0\nsamples = 1\nvalue = [0, 1]"] ;
298 -> 299 ;
300 [label="gini = 0.0\nsamples = 4\nvalue = [4, 0]"] ;
298 -> 300 ;
301 [label="gini = 0.0\nsamples = 50\nvalue = [50, 0]"] ;
297 -> 301 ;
302 [label="gini = 0.0\nsamples = 1\nvalue = [0, 1]"] ;
232 -> 302 ;
303 [label="Startdate <= 20150130.0\ngini = 0.4234\nsamples = 23\nvalue = [16, 7]"] ;
11 -> 303 ;
304 [label="EnrolDay_Thursday <= 0.5\ngini = 0.2076\nsamples = 17\nvalue = [15, 2]"] ;
303 -> 304 ;
305 [label="Metro_denver <= 0.5\ngini = 0.1172\nsamples = 16\nvalue = [15, 1]"] ;
304 -> 305 ;
306 [label="gini = 0.0\nsamples = 14\nvalue = [14, 0]"] ;
305 -> 306 ;
307 [label="Enddate <= 20145660.0\ngini = 0.5\nsamples = 2\nvalue = [1, 1]"] ;
305 -> 307 ;
308 [label="gini = 0.0\nsamples = 1\nvalue = [1, 0]"] ;
307 -> 308 ;
309 [label="gini = 0.0\nsamples = 1\nvalue = [0, 1]"] ;
307 -> 309 ;
310 [label="gini = 0.0\nsamples = 1\nvalue = [0, 1]"] ;
304 -> 310 ;
311 [label="EnrolHour <= 201559.0\ngini = 0.2778\nsamples = 6\nvalue = [1, 5]"] ;
303 -> 311 ;
312 [label="gini = 0.0\nsamples = 5\nvalue = [0, 5]"] ;
311 -> 312 ;
313 [label="gini = 0.0\nsamples = 1\nvalue = [1, 0]"] ;
311 -> 313 ;
314 [label="Year <= 1.09\ngini = 0.1155\nsamples = 195\nvalue = [183, 12]"] ;
10 -> 314 ;
315 [label="Year <= 0.595\ngini = 0.4012\nsamples = 18\nvalue = [13, 5]"] ;
314 -> 315 ;
316 [label="Metro_singapore <= 0.5\ngini = 0.3047\nsamples = 16\nvalue = [13, 3]"] ;
315 -> 316 ;
317 [label="PardotCategory_GA Front Row Signup <= 0.5\ngini = 0.1327\nsamples = 14\nvalue = [13, 1]"] ;
316 -> 317 ;
318 [label="gini = 0.0\nsamples = 13\nvalue = [13, 0]"] ;
317 -> 318 ;
319 [label="gini = 0.0\nsamples = 1\nvalue = [0, 1]"] ;
317 -> 319 ;
320 [label="gini = 0.0\nsamples = 2\nvalue = [0, 2]"] ;
316 -> 320 ;
321 [label="gini = 0.0\nsamples = 2\nvalue = [0, 2]"] ;
315 -> 321 ;
322 [label="PardotCategory_GA Dash <= 0.5\ngini = 0.076\nsamples = 177\nvalue = [170, 7]"] ;
314 -> 322 ;
323 [label="Month <= 3.5\ngini = 0.0659\nsamples = 176\nvalue = [170, 6]"] ;
322 -> 323 ;
324 [label="PardotCategory_Partner Event <= 0.5\ngini = 0.32\nsamples = 10\nvalue = [8, 2]"] ;
323 -> 324 ;
325 [label="DaysLeadtoEnroled <= 1.5\ngini = 0.1975\nsamples = 9\nvalue = [8, 1]"] ;
324 -> 325 ;
326 [label="EnrolDate <= 17.5\ngini = 0.5\nsamples = 2\nvalue = [1, 1]"] ;
325 -> 326 ;
327 [label="gini = 0.0\nsamples = 1\nvalue = [1, 0]"] ;
326 -> 327 ;
328 [label="gini = 0.0\nsamples = 1\nvalue = [0, 1]"] ;
326 -> 328 ;
329 [label="gini = 0.0\nsamples = 7\nvalue = [7, 0]"] ;
325 -> 329 ;
330 [label="gini = 0.0\nsamples = 1\nvalue = [0, 1]"] ;
324 -> 330 ;
331 [label="Year <= 8.105\ngini = 0.047\nsamples = 166\nvalue = [162, 4]"] ;
323 -> 331 ;
332 [label="EnrolDay_Friday <= 0.5\ngini = 0.0361\nsamples = 163\nvalue = [160, 3]"] ;
331 -> 332 ;
333 [label="Metro_denver <= 0.5\ngini = 0.0135\nsamples = 147\nvalue = [146, 1]"] ;
332 -> 333 ;
334 [label="gini = 0.0\nsamples = 137\nvalue = [137, 0]"] ;
333 -> 334 ;
335 [label="PardotCategory_Uncategorized <= 0.5\ngini = 0.18\nsamples = 10\nvalue = [9, 1]"] ;
333 -> 335 ;
336 [label="gini = 0.0\nsamples = 8\nvalue = [8, 0]"] ;
335 -> 336 ;
337 [label="ApplicationType_cwe_feedback <= 0.5\ngini = 0.5\nsamples = 2\nvalue = [1, 1]"] ;
335 -> 337 ;
338 [label="gini = 0.0\nsamples = 1\nvalue = [0, 1]"] ;
337 -> 338 ;
339 [label="gini = 0.0\nsamples = 1\nvalue = [1, 0]"] ;
337 -> 339 ;
340 [label="Metro_singapore <= 0.5\ngini = 0.2188\nsamples = 16\nvalue = [14, 2]"] ;
332 -> 340 ;
341 [label="Metro_boston <= 0.5\ngini = 0.1244\nsamples = 15\nvalue = [14, 1]"] ;
340 -> 341 ;
342 [label="gini = 0.0\nsamples = 13\nvalue = [13, 0]"] ;
341 -> 342 ;
343 [label="ApplicationType_open house <= 0.5\ngini = 0.5\nsamples = 2\nvalue = [1, 1]"] ;
341 -> 343 ;
344 [label="gini = 0.0\nsamples = 1\nvalue = [0, 1]"] ;
343 -> 344 ;
345 [label="gini = 0.0\nsamples = 1\nvalue = [1, 0]"] ;
343 -> 345 ;
346 [label="gini = 0.0\nsamples = 1\nvalue = [0, 1]"] ;
340 -> 346 ;
347 [label="SpeedtoLead <= 0.5\ngini = 0.4444\nsamples = 3\nvalue = [2, 1]"] ;
331 -> 347 ;
348 [label="gini = 0.0\nsamples = 2\nvalue = [2, 0]"] ;
347 -> 348 ;
349 [label="gini = 0.0\nsamples = 1\nvalue = [0, 1]"] ;
347 -> 349 ;
350 [label="gini = 0.0\nsamples = 1\nvalue = [0, 1]"] ;
322 -> 350 ;
351 [label="Enddate <= 20160568.0\ngini = 0.3026\nsamples = 269\nvalue = [219, 50]"] ;
9 -> 351 ;
352 [label="DaysLeadtoEnroled <= 17.5\ngini = 0.347\nsamples = 188\nvalue = [146, 42]"] ;
351 -> 352 ;
353 [label="EnrolDay_Thursday <= 0.5\ngini = 0.3021\nsamples = 151\nvalue = [123, 28]"] ;
352 -> 353 ;
354 [label="Year <= 0.595\ngini = 0.2528\nsamples = 128\nvalue = [109, 19]"] ;
353 -> 354 ;
355 [label="Course_user-experience-design <= 0.5\ngini = 0.4444\nsamples = 3\nvalue = [1, 2]"] ;
354 -> 355 ;
356 [label="gini = 0.0\nsamples = 2\nvalue = [0, 2]"] ;
355 -> 356 ;
357 [label="gini = 0.0\nsamples = 1\nvalue = [1, 0]"] ;
355 -> 357 ;
358 [label="Startdate <= 20150622.0\ngini = 0.235\nsamples = 125\nvalue = [108, 17]"] ;
354 -> 358 ;
359 [label="Startdate <= 20150564.0\ngini = 0.3168\nsamples = 76\nvalue = [61, 15]"] ;
358 -> 359 ;
360 [label="EnrolDate <= 20.5\ngini = 0.2809\nsamples = 71\nvalue = [59, 12]"] ;
359 -> 360 ;
361 [label="EnrolDate <= 16.5\ngini = 0.3482\nsamples = 49\nvalue = [38, 11]"] ;
360 -> 361 ;
362 [label="Month <= 31.5\ngini = 0.142\nsamples = 26\nvalue = [24, 2]"] ;
361 -> 362 ;
363 [label="PardotCategory_GA Circuits Leads <= 0.5\ngini = 0.32\nsamples = 10\nvalue = [8, 2]"] ;
362 -> 363 ;
364 [label="Month <= 29.5\ngini = 0.1975\nsamples = 9\nvalue = [8, 1]"] ;
363 -> 364 ;
365 [label="gini = 0.0\nsamples = 8\nvalue = [8, 0]"] ;
364 -> 365 ;
366 [label="gini = 0.0\nsamples = 1\nvalue = [0, 1]"] ;
364 -> 366 ;
367 [label="gini = 0.0\nsamples = 1\nvalue = [0, 1]"] ;
363 -> 367 ;
368 [label="gini = 0.0\nsamples = 16\nvalue = [16, 0]"] ;
362 -> 368 ;
369 [label="ApplicationType_request info <= 0.5\ngini = 0.4764\nsamples = 23\nvalue = [14, 9]"] ;
361 -> 369 ;
370 [label="DaysEnroltoStart <= 4.5\ngini = 0.42\nsamples = 20\nvalue = [14, 6]"] ;
369 -> 370 ;
371 [label="Startdate <= 20140920.0\ngini = 0.3047\nsamples = 16\nvalue = [13, 3]"] ;
370 -> 371 ;
372 [label="PardotCategory_Facebook Acquisition <= 0.5\ngini = 0.4444\nsamples = 3\nvalue = [1, 2]"] ;
371 -> 372 ;
373 [label="gini = 0.0\nsamples = 1\nvalue = [1, 0]"] ;
372 -> 373 ;
374 [label="gini = 0.0\nsamples = 2\nvalue = [0, 2]"] ;
372 -> 374 ;
375 [label="Month <= 12.5\ngini = 0.142\nsamples = 13\nvalue = [12, 1]"] ;
371 -> 375 ;
376 [label="gini = 0.0\nsamples = 1\nvalue = [0, 1]"] ;
375 -> 376 ;
377 [label="gini = 0.0\nsamples = 12\nvalue = [12, 0]"] ;
375 -> 377 ;
378 [label="Enddate <= 20141070.0\ngini = 0.375\nsamples = 4\nvalue = [1, 3]"] ;
370 -> 378 ;
379 [label="gini = 0.0\nsamples = 1\nvalue = [1, 0]"] ;
378 -> 379 ;
380 [label="gini = 0.0\nsamples = 3\nvalue = [0, 3]"] ;
378 -> 380 ;
381 [label="gini = 0.0\nsamples = 3\nvalue = [0, 3]"] ;
369 -> 381 ;
382 [label="PardotCategory_CWE Purchase <= 0.5\ngini = 0.0868\nsamples = 22\nvalue = [21, 1]"] ;
360 -> 382 ;
383 [label="gini = 0.0\nsamples = 20\nvalue = [20, 0]"] ;
382 -> 383 ;
384 [label="ApplicationType_financing contact us <= 0.5\ngini = 0.5\nsamples = 2\nvalue = [1, 1]"] ;
382 -> 384 ;
385 [label="gini = 0.0\nsamples = 1\nvalue = [0, 1]"] ;
384 -> 385 ;
386 [label="gini = 0.0\nsamples = 1\nvalue = [1, 0]"] ;
384 -> 386 ;
387 [label="Month <= 22.5\ngini = 0.48\nsamples = 5\nvalue = [2, 3]"] ;
359 -> 387 ;
388 [label="gini = 0.0\nsamples = 2\nvalue = [0, 2]"] ;
387 -> 388 ;
389 [label="EnrolDay_Friday <= 0.5\ngini = 0.4444\nsamples = 3\nvalue = [2, 1]"] ;
387 -> 389 ;
390 [label="gini = 0.0\nsamples = 2\nvalue = [2, 0]"] ;
389 -> 390 ;
391 [label="gini = 0.0\nsamples = 1\nvalue = [0, 1]"] ;
389 -> 391 ;
392 [label="Startdate <= 20160312.0\ngini = 0.0783\nsamples = 49\nvalue = [47, 2]"] ;
358 -> 392 ;
393 [label="EnrolDate <= 21.5\ngini = 0.0425\nsamples = 46\nvalue = [45, 1]"] ;
392 -> 393 ;
394 [label="gini = 0.0\nsamples = 39\nvalue = [39, 0]"] ;
393 -> 394 ;
395 [label="Course_back-end-web-development <= 0.5\ngini = 0.2449\nsamples = 7\nvalue = [6, 1]"] ;
393 -> 395 ;
396 [label="gini = 0.0\nsamples = 6\nvalue = [6, 0]"] ;
395 -> 396 ;
397 [label="gini = 0.0\nsamples = 1\nvalue = [0, 1]"] ;
395 -> 397 ;
398 [label="DaysLeadtoEnroled <= 12.0\ngini = 0.4444\nsamples = 3\nvalue = [2, 1]"] ;
392 -> 398 ;
399 [label="gini = 0.0\nsamples = 2\nvalue = [2, 0]"] ;
398 -> 399 ;
400 [label="gini = 0.0\nsamples = 1\nvalue = [0, 1]"] ;
398 -> 400 ;
401 [label="PhoneValid <= 0.5\ngini = 0.4764\nsamples = 23\nvalue = [14, 9]"] ;
353 -> 401 ;
402 [label="gini = 0.0\nsamples = 3\nvalue = [0, 3]"] ;
401 -> 402 ;
403 [label="Month <= 8.0\ngini = 0.42\nsamples = 20\nvalue = [14, 6]"] ;
401 -> 403 ;
404 [label="gini = 0.0\nsamples = 2\nvalue = [0, 2]"] ;
403 -> 404 ;
405 [label="EnrolDate <= 22.5\ngini = 0.3457\nsamples = 18\nvalue = [14, 4]"] ;
403 -> 405 ;
406 [label="DaysLeadtoEnroled <= 0.5\ngini = 0.2311\nsamples = 15\nvalue = [13, 2]"] ;
405 -> 406 ;
407 [label="EnrolDate <= 18.5\ngini = 0.5\nsamples = 4\nvalue = [2, 2]"] ;
406 -> 407 ;
408 [label="gini = 0.0\nsamples = 1\nvalue = [1, 0]"] ;
407 -> 408 ;
409 [label="Month <= 14.0\ngini = 0.4444\nsamples = 3\nvalue = [1, 2]"] ;
407 -> 409 ;
410 [label="gini = 0.0\nsamples = 1\nvalue = [1, 0]"] ;
409 -> 410 ;
411 [label="gini = 0.0\nsamples = 2\nvalue = [0, 2]"] ;
409 -> 411 ;
412 [label="gini = 0.0\nsamples = 11\nvalue = [11, 0]"] ;
406 -> 412 ;
413 [label="Course_data-science-immersive <= 0.5\ngini = 0.4444\nsamples = 3\nvalue = [1, 2]"] ;
405 -> 413 ;
414 [label="gini = 0.0\nsamples = 2\nvalue = [0, 2]"] ;
413 -> 414 ;
415 [label="gini = 0.0\nsamples = 1\nvalue = [1, 0]"] ;
413 -> 415 ;
416 [label="EnrolDate <= 22.5\ngini = 0.4704\nsamples = 37\nvalue = [23, 14]"] ;
352 -> 416 ;
417 [label="Course_back-end-web-development <= 0.5\ngini = 0.4377\nsamples = 34\nvalue = [23, 11]"] ;
416 -> 417 ;
418 [label="DaysLeadtoEnroled <= 30.0\ngini = 0.4043\nsamples = 32\nvalue = [23, 9]"] ;
417 -> 418 ;
419 [label="DaysEnroltoStart <= 2.5\ngini = 0.4527\nsamples = 26\nvalue = [17, 9]"] ;
418 -> 419 ;
420 [label="Month <= 25.0\ngini = 0.4444\nsamples = 9\nvalue = [3, 6]"] ;
419 -> 420 ;
421 [label="Course_business-fundamentals-tactics <= 0.5\ngini = 0.375\nsamples = 4\nvalue = [3, 1]"] ;
420 -> 421 ;
422 [label="gini = 0.0\nsamples = 3\nvalue = [3, 0]"] ;
421 -> 422 ;
423 [label="gini = 0.0\nsamples = 1\nvalue = [0, 1]"] ;
421 -> 423 ;
424 [label="gini = 0.0\nsamples = 5\nvalue = [0, 5]"] ;
420 -> 424 ;
425 [label="EnrolDay_Friday <= 0.5\ngini = 0.2907\nsamples = 17\nvalue = [14, 3]"] ;
419 -> 425 ;
426 [label="Price <= 3025.0\ngini = 0.1327\nsamples = 14\nvalue = [13, 1]"] ;
425 -> 426 ;
427 [label="gini = 0.0\nsamples = 1\nvalue = [0, 1]"] ;
426 -> 427 ;
428 [label="gini = 0.0\nsamples = 13\nvalue = [13, 0]"] ;
426 -> 428 ;
429 [label="PardotCategory_Uncategorized <= 0.5\ngini = 0.4444\nsamples = 3\nvalue = [1, 2]"] ;
425 -> 429 ;
430 [label="gini = 0.0\nsamples = 2\nvalue = [0, 2]"] ;
429 -> 430 ;
431 [label="gini = 0.0\nsamples = 1\nvalue = [1, 0]"] ;
429 -> 431 ;
432 [label="gini = 0.0\nsamples = 6\nvalue = [6, 0]"] ;
418 -> 432 ;
433 [label="gini = 0.0\nsamples = 2\nvalue = [0, 2]"] ;
417 -> 433 ;
434 [label="gini = 0.0\nsamples = 3\nvalue = [0, 3]"] ;
416 -> 434 ;
435 [label="Year <= 0.27\ngini = 0.178\nsamples = 81\nvalue = [73, 8]"] ;
351 -> 435 ;
436 [label="Course_data-science <= 0.5\ngini = 0.3935\nsamples = 26\nvalue = [19, 7]"] ;
435 -> 436 ;
437 [label="Course_user-experience-design <= 0.5\ngini = 0.3299\nsamples = 24\nvalue = [19, 5]"] ;
436 -> 437 ;
438 [label="DaysLeadtoEnroled <= 0.5\ngini = 0.2449\nsamples = 21\nvalue = [18, 3]"] ;
437 -> 438 ;
439 [label="gini = 0.0\nsamples = 1\nvalue = [0, 1]"] ;
438 -> 439 ;
440 [label="EnrolDay_Saturday <= 0.5\ngini = 0.18\nsamples = 20\nvalue = [18, 2]"] ;
438 -> 440 ;
441 [label="DaysLeadtoEnroled <= 19.5\ngini = 0.1049\nsamples = 18\nvalue = [17, 1]"] ;
440 -> 441 ;
442 [label="gini = 0.0\nsamples = 14\nvalue = [14, 0]"] ;
441 -> 442 ;
443 [label="DaysLeadtoEnroled <= 23.0\ngini = 0.375\nsamples = 4\nvalue = [3, 1]"] ;
441 -> 443 ;
444 [label="gini = 0.0\nsamples = 1\nvalue = [0, 1]"] ;
443 -> 444 ;
445 [label="gini = 0.0\nsamples = 3\nvalue = [3, 0]"] ;
443 -> 445 ;
446 [label="EnrolHour <= 201608.0\ngini = 0.5\nsamples = 2\nvalue = [1, 1]"] ;
440 -> 446 ;
447 [label="gini = 0.0\nsamples = 1\nvalue = [0, 1]"] ;
446 -> 447 ;
448 [label="gini = 0.0\nsamples = 1\nvalue = [1, 0]"] ;
446 -> 448 ;
449 [label="ExpectedPayment_Veterans Affairs <= 0.5\ngini = 0.4444\nsamples = 3\nvalue = [1, 2]"] ;
437 -> 449 ;
450 [label="gini = 0.0\nsamples = 2\nvalue = [0, 2]"] ;
449 -> 450 ;
451 [label="gini = 0.0\nsamples = 1\nvalue = [1, 0]"] ;
449 -> 451 ;
452 [label="gini = 0.0\nsamples = 2\nvalue = [0, 2]"] ;
436 -> 452 ;
453 [label="Enddate <= 20170366.0\ngini = 0.0357\nsamples = 55\nvalue = [54, 1]"] ;
435 -> 453 ;
454 [label="gini = 0.0\nsamples = 52\nvalue = [52, 0]"] ;
453 -> 454 ;
455 [label="PardotCategory_Website <= 0.5\ngini = 0.4444\nsamples = 3\nvalue = [2, 1]"] ;
453 -> 455 ;
456 [label="gini = 0.0\nsamples = 2\nvalue = [2, 0]"] ;
455 -> 456 ;
457 [label="gini = 0.0\nsamples = 1\nvalue = [0, 1]"] ;
455 -> 457 ;
458 [label="EnrolDate <= 0.5\ngini = 0.3835\nsamples = 58\nvalue = [43, 15]"] ;
8 -> 458 ;
459 [label="gini = 0.0\nsamples = 2\nvalue = [0, 2]"] ;
458 -> 459 ;
460 [label="APAC <= 0.5\ngini = 0.3565\nsamples = 56\nvalue = [43, 13]"] ;
458 -> 460 ;
461 [label="Startdate <= 20150572.0\ngini = 0.3244\nsamples = 54\nvalue = [43, 11]"] ;
460 -> 461 ;
462 [label="PhoneValid <= 0.5\ngini = 0.4861\nsamples = 12\nvalue = [7, 5]"] ;
461 -> 462 ;
463 [label="gini = 0.0\nsamples = 4\nvalue = [4, 0]"] ;
462 -> 463 ;
464 [label="EnrolDate <= 18.5\ngini = 0.4688\nsamples = 8\nvalue = [3, 5]"] ;
462 -> 464 ;
465 [label="Price <= 26500.0\ngini = 0.4082\nsamples = 7\nvalue = [2, 5]"] ;
464 -> 465 ;
466 [label="ExpectedPayment_Scholarship <= 0.5\ngini = 0.4444\nsamples = 3\nvalue = [2, 1]"] ;
465 -> 466 ;
467 [label="gini = 0.0\nsamples = 1\nvalue = [0, 1]"] ;
466 -> 467 ;
468 [label="gini = 0.0\nsamples = 2\nvalue = [2, 0]"] ;
466 -> 468 ;
469 [label="gini = 0.0\nsamples = 4\nvalue = [0, 4]"] ;
465 -> 469 ;
470 [label="gini = 0.0\nsamples = 1\nvalue = [1, 0]"] ;
464 -> 470 ;
471 [label="PardotCategory_GA Dash <= 0.5\ngini = 0.2449\nsamples = 42\nvalue = [36, 6]"] ;
461 -> 471 ;
472 [label="ApplicationType_referral <= 0.5\ngini = 0.2142\nsamples = 41\nvalue = [36, 5]"] ;
471 -> 472 ;
473 [label="EnrolDate <= 17.5\ngini = 0.18\nsamples = 40\nvalue = [36, 4]"] ;
472 -> 473 ;
474 [label="PardotCategory_Website <= 0.5\ngini = 0.0644\nsamples = 30\nvalue = [29, 1]"] ;
473 -> 474 ;
475 [label="gini = 0.0\nsamples = 27\nvalue = [27, 0]"] ;
474 -> 475 ;
476 [label="Enddate <= 20160720.0\ngini = 0.4444\nsamples = 3\nvalue = [2, 1]"] ;
474 -> 476 ;
477 [label="gini = 0.0\nsamples = 2\nvalue = [2, 0]"] ;
476 -> 477 ;
478 [label="gini = 0.0\nsamples = 1\nvalue = [0, 1]"] ;
476 -> 478 ;
479 [label="Year <= 4.7733\ngini = 0.42\nsamples = 10\nvalue = [7, 3]"] ;
473 -> 479 ;
480 [label="DaysLeadtoEnroled <= 5.0\ngini = 0.375\nsamples = 4\nvalue = [1, 3]"] ;
479 -> 480 ;
481 [label="gini = 0.0\nsamples = 1\nvalue = [1, 0]"] ;
480 -> 481 ;
482 [label="gini = 0.0\nsamples = 3\nvalue = [0, 3]"] ;
480 -> 482 ;
483 [label="gini = 0.0\nsamples = 6\nvalue = [6, 0]"] ;
479 -> 483 ;
484 [label="gini = 0.0\nsamples = 1\nvalue = [0, 1]"] ;
472 -> 484 ;
485 [label="gini = 0.0\nsamples = 1\nvalue = [0, 1]"] ;
471 -> 485 ;
486 [label="gini = 0.0\nsamples = 2\nvalue = [0, 2]"] ;
460 -> 486 ;
487 [label="Metro_boston <= 0.5\ngini = 0.1787\nsamples = 6976\nvalue = [6284, 692]"] ;
7 -> 487 ;
488 [label="Year <= 1926.385\ngini = 0.1752\nsamples = 6731\nvalue = [6078, 653]"] ;
487 -> 488 ;
489 [label="Startdate <= 20140712.0\ngini = 0.175\nsamples = 6730\nvalue = [6078, 652]"] ;
488 -> 489 ;
490 [label="gini = 0.0\nsamples = 1\nvalue = [0, 1]"] ;
489 -> 490 ;
491 [label="DaysLeadtoEnroled <= -21.0\ngini = 0.1748\nsamples = 6729\nvalue = [6078, 651]"] ;
489 -> 491 ;
492 [label="gini = 0.0\nsamples = 1\nvalue = [0, 1]"] ;
491 -> 492 ;
493 [label="EnrolDay_Saturday <= 0.5\ngini = 0.1746\nsamples = 6728\nvalue = [6078, 650]"] ;
491 -> 493 ;
494 [label="Course_business-fundamentals-tactics <= 0.5\ngini = 0.1822\nsamples = 5317\nvalue = [4778, 539]"] ;
493 -> 494 ;
495 [label="Course_data-science-immersive <= 0.5\ngini = 0.1762\nsamples = 4885\nvalue = [4408, 477]"] ;
494 -> 495 ;
496 [label="PardotCategory_GA Course Leads <= 0.5\ngini = 0.1678\nsamples = 3970\nvalue = [3603, 367]"] ;
495 -> 496 ;
497 [label="ApplicationType_info session <= 0.5\ngini = 0.1651\nsamples = 3922\nvalue = [3566, 356]"] ;
496 -> 497 ;
498 [label="Startdate <= 20170126.0\ngini = 0.1634\nsamples = 3900\nvalue = [3550, 350]"] ;
497 -> 498 ;
499 [label="Metro_london <= 0.5\ngini = 0.1618\nsamples = 3875\nvalue = [3531, 344]"] ;
498 -> 499 ;
500 [label="ApplicationType_trial class <= 0.5\ngini = 0.1661\nsamples = 3675\nvalue = [3339, 336]"] ;
499 -> 500 ;
501 [label="Year <= 59.45\ngini = 0.1652\nsamples = 3666\nvalue = [3333, 333]"] ;
500 -> 501 ;
502 [label="Enddate <= 20170320.0\ngini = 0.1645\nsamples = 3661\nvalue = [3330, 331]"] ;
501 -> 502 ;
503 [label="Year <= 10.98\ngini = 0.1674\nsamples = 3569\nvalue = [3240, 329]"] ;
502 -> 503 ;
504 [label="Year <= 10.545\ngini = 0.1695\nsamples = 3509\nvalue = [3181, 328]"] ;
503 -> 504 ;
505 [label="Metro_new-york-city <= 0.5\ngini = 0.1691\nsamples = 3508\nvalue = [3181, 327]"] ;
504 -> 505 ;
506 [label="ApplicationType_apply now <= 0.5\ngini = 0.1617\nsamples = 2897\nvalue = [2640, 257]"] ;
505 -> 506 ;
507 [label="ApplicationType_contact_admissions <= 0.5\ngini = 0.1597\nsamples = 2869\nvalue = [2618, 251]"] ;
506 -> 507 ;
508 [label="Enddate <= 20170316.0\ngini = 0.1575\nsamples = 2832\nvalue = [2588, 244]"] ;
507 -> 508 ;
509 [label="Course_product-management <= 0.5\ngini = 0.157\nsamples = 2830\nvalue = [2587, 243]"] ;
508 -> 509 ;
510 [label="Enddate <= 20160568.0\ngini = 0.165\nsamples = 2281\nvalue = [2074, 207]"] ;
509 -> 510 ;
511 [label="DaysEnroltoStart <= 103.5\ngini = 0.1508\nsamples = 1473\nvalue = [1352, 121]"] ;
510 -> 511 ;
512 [label="PardotCategory_GA Dash <= 0.5\ngini = 0.1472\nsamples = 1450\nvalue = [1334, 116]"] ;
511 -> 512 ;
513 [label="EnrolDate <= 15.5\ngini = 0.1455\nsamples = 1443\nvalue = [1329, 114]"] ;
512 -> 513 ;
514 [label="Startdate <= 20160324.0\ngini = 0.1669\nsamples = 729\nvalue = [662, 67]"] ;
513 -> 514 ;
515 [label="DaysEnroltoStart <= 12.5\ngini = 0.1649\nsamples = 728\nvalue = [662, 66]"] ;
514 -> 515 ;
516 [label="Cancelled <= 0.5\ngini = 0.2521\nsamples = 169\nvalue = [144, 25]"] ;
515 -> 516 ;
517 [label="Price <= 12500.0\ngini = 0.2449\nsamples = 168\nvalue = [144, 24]"] ;
516 -> 517 ;
518 [label="EnrolDay_Monday <= 0.5\ngini = 0.2124\nsamples = 149\nvalue = [131, 18]"] ;
517 -> 518 ;
519 [label="DaysLeadtoEnroled <= 12.5\ngini = 0.1913\nsamples = 140\nvalue = [125, 15]"] ;
518 -> 519 ;
520 [label="DaysLeadtoEnroled <= 6.5\ngini = 0.258\nsamples = 92\nvalue = [78, 14]"] ;
519 -> 520 ;
521 [label="PardotCategory_Sweepstake <= 0.5\ngini = 0.1244\nsamples = 60\nvalue = [56, 4]"] ;
520 -> 521 ;
522 [label="Startdate <= 20141066.0\ngini = 0.0965\nsamples = 59\nvalue = [56, 3]"] ;
521 -> 522 ;
523 [label="DaysEnroltoStart <= 8.0\ngini = 0.4082\nsamples = 7\nvalue = [5, 2]"] ;
522 -> 523 ;
524 [label="gini = 0.0\nsamples = 1\nvalue = [0, 1]"] ;
523 -> 524 ;
525 [label="PardotCategory_GA Front Row Signup <= 0.5\ngini = 0.2778\nsamples = 6\nvalue = [5, 1]"] ;
523 -> 525 ;
526 [label="gini = 0.0\nsamples = 4\nvalue = [4, 0]"] ;
525 -> 526 ;
527 [label="gini = 0.5\nsamples = 2\nvalue = [1, 1]"] ;
525 -> 527 ;
528 [label="PardotCategory_Partner Event <= 0.5\ngini = 0.0377\nsamples = 52\nvalue = [51, 1]"] ;
522 -> 528 ;
529 [label="gini = 0.0\nsamples = 50\nvalue = [50, 0]"] ;
528 -> 529 ;
530 [label="DaysEnroltoStart <= 7.0\ngini = 0.5\nsamples = 2\nvalue = [1, 1]"] ;
528 -> 530 ;
531 [label="gini = 0.0\nsamples = 1\nvalue = [0, 1]"] ;
530 -> 531 ;
532 [label="gini = 0.0\nsamples = 1\nvalue = [1, 0]"] ;
530 -> 532 ;
533 [label="gini = 0.0\nsamples = 1\nvalue = [0, 1]"] ;
521 -> 533 ;
534 [label="EnrolDay_Thursday <= 0.5\ngini = 0.4297\nsamples = 32\nvalue = [22, 10]"] ;
520 -> 534 ;
535 [label="DaysLeadtoEnroled <= 11.5\ngini = 0.2778\nsamples = 24\nvalue = [20, 4]"] ;
534 -> 535 ;
536 [label="EnrolWeek <= 2015.5\ngini = 0.1723\nsamples = 21\nvalue = [19, 2]"] ;
535 -> 536 ;
537 [label="Metro_seattle <= 0.5\ngini = 0.095\nsamples = 20\nvalue = [19, 1]"] ;
536 -> 537 ;
538 [label="gini = 0.0\nsamples = 14\nvalue = [14, 0]"] ;
537 -> 538 ;
539 [label="Month <= 32.0\ngini = 0.2778\nsamples = 6\nvalue = [5, 1]"] ;
537 -> 539 ;
540 [label="Course_back-end-web-development <= 0.5\ngini = 0.5\nsamples = 2\nvalue = [1, 1]"] ;
539 -> 540 ;
541 [label="gini = 0.0\nsamples = 1\nvalue = [0, 1]"] ;
540 -> 541 ;
542 [label="gini = 0.0\nsamples = 1\nvalue = [1, 0]"] ;
540 -> 542 ;
543 [label="gini = 0.0\nsamples = 4\nvalue = [4, 0]"] ;
539 -> 543 ;
544 [label="gini = 0.0\nsamples = 1\nvalue = [0, 1]"] ;
536 -> 544 ;
545 [label="EnrolHour <= 201504.0\ngini = 0.4444\nsamples = 3\nvalue = [1, 2]"] ;
535 -> 545 ;
546 [label="gini = 0.0\nsamples = 1\nvalue = [1, 0]"] ;
545 -> 546 ;
547 [label="gini = 0.0\nsamples = 2\nvalue = [0, 2]"] ;
545 -> 547 ;
548 [label="Enddate <= 20150976.0\ngini = 0.375\nsamples = 8\nvalue = [2, 6]"] ;
534 -> 548 ;
549 [label="ExpectedPayment_Scholarship <= 0.5\ngini = 0.4444\nsamples = 3\nvalue = [2, 1]"] ;
548 -> 549 ;
550 [label="gini = 0.0\nsamples = 2\nvalue = [2, 0]"] ;
549 -> 550 ;
551 [label="gini = 0.0\nsamples = 1\nvalue = [0, 1]"] ;
549 -> 551 ;
552 [label="gini = 0.0\nsamples = 5\nvalue = [0, 5]"] ;
548 -> 552 ;
553 [label="DaysEnroltoStart <= 11.5\ngini = 0.0408\nsamples = 48\nvalue = [47, 1]"] ;
519 -> 553 ;
554 [label="gini = 0.0\nsamples = 44\nvalue = [44, 0]"] ;
553 -> 554 ;
555 [label="Course_user-experience-design <= 0.5\ngini = 0.375\nsamples = 4\nvalue = [3, 1]"] ;
553 -> 555 ;
556 [label="gini = 0.0\nsamples = 3\nvalue = [3, 0]"] ;
555 -> 556 ;
557 [label="gini = 0.0\nsamples = 1\nvalue = [0, 1]"] ;
555 -> 557 ;
558 [label="EnrolDate <= 1.5\ngini = 0.4444\nsamples = 9\nvalue = [6, 3]"] ;
518 -> 558 ;
559 [label="gini = 0.0\nsamples = 4\nvalue = [4, 0]"] ;
558 -> 559 ;
560 [label="DaysLeadtoEnroled <= 22.5\ngini = 0.48\nsamples = 5\nvalue = [2, 3]"] ;
558 -> 560 ;
561 [label="gini = 0.0\nsamples = 3\nvalue = [0, 3]"] ;
560 -> 561 ;
562 [label="gini = 0.0\nsamples = 2\nvalue = [2, 0]"] ;
560 -> 562 ;
563 [label="EnrolDay_Sunday <= 0.5\ngini = 0.4321\nsamples = 19\nvalue = [13, 6]"] ;
517 -> 563 ;
564 [label="Metro_chicago <= 0.5\ngini = 0.18\nsamples = 10\nvalue = [9, 1]"] ;
563 -> 564 ;
565 [label="gini = 0.0\nsamples = 1\nvalue = [0, 1]"] ;
564 -> 565 ;
566 [label="gini = 0.0\nsamples = 9\nvalue = [9, 0]"] ;
564 -> 566 ;
567 [label="Month <= 30.0\ngini = 0.4938\nsamples = 9\nvalue = [4, 5]"] ;
563 -> 567 ;
568 [label="gini = 0.0\nsamples = 2\nvalue = [2, 0]"] ;
567 -> 568 ;
569 [label="ApplicationType_request info <= 0.5\ngini = 0.4082\nsamples = 7\nvalue = [2, 5]"] ;
567 -> 569 ;
570 [label="gini = 0.0\nsamples = 4\nvalue = [0, 4]"] ;
569 -> 570 ;
571 [label="EnrolDate <= 2.5\ngini = 0.4444\nsamples = 3\nvalue = [2, 1]"] ;
569 -> 571 ;
572 [label="gini = 0.0\nsamples = 1\nvalue = [0, 1]"] ;
571 -> 572 ;
573 [label="gini = 0.0\nsamples = 2\nvalue = [2, 0]"] ;
571 -> 573 ;
574 [label="gini = 0.0\nsamples = 1\nvalue = [0, 1]"] ;
516 -> 574 ;
575 [label="Course_ios-development <= 0.5\ngini = 0.1359\nsamples = 559\nvalue = [518, 41]"] ;
515 -> 575 ;
576 [label="EnrolHour <= 201505.5\ngini = 0.1537\nsamples = 465\nvalue = [426, 39]"] ;
575 -> 576 ;
577 [label="EnrolDay_Sunday <= 0.5\ngini = 0.1968\nsamples = 244\nvalue = [217, 27]"] ;
576 -> 577 ;
578 [label="Enddate <= 20151012.0\ngini = 0.1697\nsamples = 203\nvalue = [184, 19]"] ;
577 -> 578 ;
579 [label="PardotCategory_Twitter Acquisition <= 0.5\ngini = 0.1631\nsamples = 201\nvalue = [183, 18]"] ;
578 -> 579 ;
580 [label="DaysEnroltoStart <= 13.5\ngini = 0.1563\nsamples = 199\nvalue = [182, 17]"] ;
579 -> 580 ;
581 [label="ApplicationType_financing contact us <= 0.5\ngini = 0.4444\nsamples = 6\nvalue = [4, 2]"] ;
580 -> 581 ;
582 [label="gini = 0.0\nsamples = 4\nvalue = [4, 0]"] ;
581 -> 582 ;
583 [label="gini = 0.0\nsamples = 2\nvalue = [0, 2]"] ;
581 -> 583 ;
584 [label="DaysEnroltoStart <= 45.5\ngini = 0.1434\nsamples = 193\nvalue = [178, 15]"] ;
580 -> 584 ;
585 [label="Metro_atlanta <= 0.5\ngini = 0.1777\nsamples = 142\nvalue = [128, 14]"] ;
584 -> 585 ;
586 [label="EnrolDate <= 14.5\ngini = 0.1598\nsamples = 137\nvalue = [125, 12]"] ;
585 -> 586 ;
587 [label="DaysEnroltoStart <= 36.5\ngini = 0.1244\nsamples = 120\nvalue = [112, 8]"] ;
586 -> 587 ;
588 [label="DaysLeadtoEnroled <= 1.5\ngini = 0.0605\nsamples = 96\nvalue = [93, 3]"] ;
587 -> 588 ;
589 [label="Month <= 35.5\ngini = 0.2975\nsamples = 11\nvalue = [9, 2]"] ;
588 -> 589 ;
590 [label="gini = 0.0\nsamples = 9\nvalue = [9, 0]"] ;
589 -> 590 ;
591 [label="gini = 0.0\nsamples = 2\nvalue = [0, 2]"] ;
589 -> 591 ;
592 [label="Course_back-end-web-development <= 0.5\ngini = 0.0233\nsamples = 85\nvalue = [84, 1]"] ;
588 -> 592 ;
593 [label="gini = 0.0\nsamples = 78\nvalue = [78, 0]"] ;
592 -> 593 ;
594 [label="DaysEnroltoStart <= 28.5\ngini = 0.2449\nsamples = 7\nvalue = [6, 1]"] ;
592 -> 594 ;
595 [label="gini = 0.0\nsamples = 6\nvalue = [6, 0]"] ;
594 -> 595 ;
596 [label="gini = 0.0\nsamples = 1\nvalue = [0, 1]"] ;
594 -> 596 ;
597 [label="Course_web-development-immersive-remote <= 0.5\ngini = 0.3299\nsamples = 24\nvalue = [19, 5]"] ;
587 -> 597 ;
598 [label="gini = 0.0\nsamples = 10\nvalue = [10, 0]"] ;
597 -> 598 ;
599 [label="PardotCategory_Unknown <= 0.5\ngini = 0.4592\nsamples = 14\nvalue = [9, 5]"] ;
597 -> 599 ;
600 [label="ApplicationType_financing contact us <= 0.5\ngini = 0.375\nsamples = 4\nvalue = [1, 3]"] ;
599 -> 600 ;
601 [label="gini = 0.0\nsamples = 3\nvalue = [0, 3]"] ;
600 -> 601 ;
602 [label="gini = 0.0\nsamples = 1\nvalue = [1, 0]"] ;
600 -> 602 ;
603 [label="PardotCategory_GA Circuits Leads <= 0.5\ngini = 0.32\nsamples = 10\nvalue = [8, 2]"] ;
599 -> 603 ;
604 [label="Metro_chicago <= 0.5\ngini = 0.1975\nsamples = 9\nvalue = [8, 1]"] ;
603 -> 604 ;
605 [label="gini = 0.0\nsamples = 8\nvalue = [8, 0]"] ;
604 -> 605 ;
606 [label="gini = 0.0\nsamples = 1\nvalue = [0, 1]"] ;
604 -> 606 ;
607 [label="gini = 0.0\nsamples = 1\nvalue = [0, 1]"] ;
603 -> 607 ;
608 [label="ExpectedPayment_Unknown <= 0.5\ngini = 0.3599\nsamples = 17\nvalue = [13, 4]"] ;
586 -> 608 ;
609 [label="Metro_los-angeles <= 0.5\ngini = 0.4938\nsamples = 9\nvalue = [5, 4]"] ;
608 -> 609 ;
610 [label="EnrolDay_Monday <= 0.5\ngini = 0.32\nsamples = 5\nvalue = [4, 1]"] ;
609 -> 610 ;
611 [label="gini = 0.0\nsamples = 4\nvalue = [4, 0]"] ;
610 -> 611 ;
612 [label="gini = 0.0\nsamples = 1\nvalue = [0, 1]"] ;
610 -> 612 ;
613 [label="PardotCategory_Unknown <= 0.5\ngini = 0.375\nsamples = 4\nvalue = [1, 3]"] ;
609 -> 613 ;
614 [label="gini = 0.0\nsamples = 3\nvalue = [0, 3]"] ;
613 -> 614 ;
615 [label="gini = 0.0\nsamples = 1\nvalue = [1, 0]"] ;
613 -> 615 ;
616 [label="gini = 0.0\nsamples = 8\nvalue = [8, 0]"] ;
608 -> 616 ;
617 [label="PardotCategory_Unknown <= 0.5\ngini = 0.48\nsamples = 5\nvalue = [3, 2]"] ;
585 -> 617 ;
618 [label="gini = 0.0\nsamples = 3\nvalue = [3, 0]"] ;
617 -> 618 ;
619 [label="gini = 0.0\nsamples = 2\nvalue = [0, 2]"] ;
617 -> 619 ;
620 [label="Month <= 50.0\ngini = 0.0384\nsamples = 51\nvalue = [50, 1]"] ;
584 -> 620 ;
621 [label="gini = 0.0\nsamples = 49\nvalue = [49, 0]"] ;
620 -> 621 ;
622 [label="Month <= 51.5\ngini = 0.5\nsamples = 2\nvalue = [1, 1]"] ;
620 -> 622 ;
623 [label="gini = 0.0\nsamples = 1\nvalue = [0, 1]"] ;
622 -> 623 ;
624 [label="gini = 0.0\nsamples = 1\nvalue = [1, 0]"] ;
622 -> 624 ;
625 [label="ApplicationType_get notified <= 0.5\ngini = 0.5\nsamples = 2\nvalue = [1, 1]"] ;
579 -> 625 ;
626 [label="gini = 0.0\nsamples = 1\nvalue = [0, 1]"] ;
625 -> 626 ;
627 [label="gini = 0.0\nsamples = 1\nvalue = [1, 0]"] ;
625 -> 627 ;
628 [label="DaysEnroltoStart <= 77.0\ngini = 0.5\nsamples = 2\nvalue = [1, 1]"] ;
578 -> 628 ;
629 [label="gini = 0.0\nsamples = 1\nvalue = [0, 1]"] ;
628 -> 629 ;
630 [label="gini = 0.0\nsamples = 1\nvalue = [1, 0]"] ;
628 -> 630 ;
631 [label="Price <= 3150.0\ngini = 0.3141\nsamples = 41\nvalue = [33, 8]"] ;
577 -> 631 ;
632 [label="EnrolDate <= 14.5\ngini = 0.5\nsamples = 8\nvalue = [4, 4]"] ;
631 -> 632 ;
633 [label="DaysEnroltoStart <= 18.5\ngini = 0.32\nsamples = 5\nvalue = [1, 4]"] ;
632 -> 633 ;
634 [label="gini = 0.0\nsamples = 1\nvalue = [1, 0]"] ;
633 -> 634 ;
635 [label="gini = 0.0\nsamples = 4\nvalue = [0, 4]"] ;
633 -> 635 ;
636 [label="gini = 0.0\nsamples = 3\nvalue = [3, 0]"] ;
632 -> 636 ;
637 [label="Metro_online <= 0.5\ngini = 0.213\nsamples = 33\nvalue = [29, 4]"] ;
631 -> 637 ;
638 [label="Course_javascript-development <= 0.5\ngini = 0.1699\nsamples = 32\nvalue = [29, 3]"] ;
637 -> 638 ;
639 [label="Month <= 50.5\ngini = 0.1207\nsamples = 31\nvalue = [29, 2]"] ;
638 -> 639 ;
640 [label="Month <= 8.0\ngini = 0.0666\nsamples = 29\nvalue = [28, 1]"] ;
639 -> 640 ;
641 [label="Price <= 7500.0\ngini = 0.32\nsamples = 5\nvalue = [4, 1]"] ;
640 -> 641 ;
642 [label="gini = 0.0\nsamples = 1\nvalue = [0, 1]"] ;
641 -> 642 ;
643 [label="gini = 0.0\nsamples = 4\nvalue = [4, 0]"] ;
641 -> 643 ;
644 [label="gini = 0.0\nsamples = 24\nvalue = [24, 0]"] ;
640 -> 644 ;
645 [label="Course_data-science <= 0.5\ngini = 0.5\nsamples = 2\nvalue = [1, 1]"] ;
639 -> 645 ;
646 [label="gini = 0.0\nsamples = 1\nvalue = [1, 0]"] ;
645 -> 646 ;
647 [label="gini = 0.0\nsamples = 1\nvalue = [0, 1]"] ;
645 -> 647 ;
648 [label="gini = 0.0\nsamples = 1\nvalue = [0, 1]"] ;
638 -> 648 ;
649 [label="gini = 0.0\nsamples = 1\nvalue = [0, 1]"] ;
637 -> 649 ;
650 [label="Price <= 59000.0\ngini = 0.1027\nsamples = 221\nvalue = [209, 12]"] ;
576 -> 650 ;
651 [label="PardotCategory_Student Enrollment <= 0.5\ngini = 0.0899\nsamples = 212\nvalue = [202, 10]"] ;
650 -> 651 ;
652 [label="DaysEnroltoStart <= 77.5\ngini = 0.0824\nsamples = 209\nvalue = [200, 9]"] ;
651 -> 652 ;
653 [label="PardotCategory_GA Front Row Signup <= 0.5\ngini = 0.0689\nsamples = 196\nvalue = [189, 7]"] ;
652 -> 653 ;
654 [label="ExpectedPayment_Unknown <= 0.5\ngini = 0.0609\nsamples = 191\nvalue = [185, 6]"] ;
653 -> 654 ;
655 [label="Course_user-experience-design <= 0.5\ngini = 0.0196\nsamples = 101\nvalue = [100, 1]"] ;
654 -> 655 ;
656 [label="gini = 0.0\nsamples = 92\nvalue = [92, 0]"] ;
655 -> 656 ;
657 [label="PardotCategory_Unknown <= 0.5\ngini = 0.1975\nsamples = 9\nvalue = [8, 1]"] ;
655 -> 657 ;
658 [label="gini = 0.0\nsamples = 7\nvalue = [7, 0]"] ;
657 -> 658 ;
659 [label="PardotCategory_Uncategorized <= 0.5\ngini = 0.5\nsamples = 2\nvalue = [1, 1]"] ;
657 -> 659 ;
660 [label="gini = 0.0\nsamples = 1\nvalue = [0, 1]"] ;
659 -> 660 ;
661 [label="gini = 0.0\nsamples = 1\nvalue = [1, 0]"] ;
659 -> 661 ;
662 [label="Metro_online <= 0.5\ngini = 0.1049\nsamples = 90\nvalue = [85, 5]"] ;
654 -> 662 ;
663 [label="PardotCategory_CWE Purchase <= 0.5\ngini = 0.0877\nsamples = 87\nvalue = [83, 4]"] ;
662 -> 663 ;
664 [label="DaysLeadtoEnroled <= 8.5\ngini = 0.0697\nsamples = 83\nvalue = [80, 3]"] ;
663 -> 664 ;
665 [label="Course_web-development-immersive <= 0.5\ngini = 0.1609\nsamples = 34\nvalue = [31, 3]"] ;
664 -> 665 ;
666 [label="EnrolDay_Thursday <= 0.5\ngini = 0.48\nsamples = 5\nvalue = [3, 2]"] ;
665 -> 666 ;
667 [label="gini = 0.0\nsamples = 3\nvalue = [3, 0]"] ;
666 -> 667 ;
668 [label="gini = 0.0\nsamples = 2\nvalue = [0, 2]"] ;
666 -> 668 ;
669 [label="PardotCategory_Website <= 0.5\ngini = 0.0666\nsamples = 29\nvalue = [28, 1]"] ;
665 -> 669 ;
670 [label="gini = 0.0\nsamples = 28\nvalue = [28, 0]"] ;
669 -> 670 ;
671 [label="gini = 0.0\nsamples = 1\nvalue = [0, 1]"] ;
669 -> 671 ;
672 [label="gini = 0.0\nsamples = 49\nvalue = [49, 0]"] ;
664 -> 672 ;
673 [label="EnrolDay_Thursday <= 0.5\ngini = 0.375\nsamples = 4\nvalue = [3, 1]"] ;
663 -> 673 ;
674 [label="gini = 0.0\nsamples = 1\nvalue = [0, 1]"] ;
673 -> 674 ;
675 [label="gini = 0.0\nsamples = 3\nvalue = [3, 0]"] ;
673 -> 675 ;
676 [label="EnrolHour <= 201555.0\ngini = 0.4444\nsamples = 3\nvalue = [2, 1]"] ;
662 -> 676 ;
677 [label="gini = 0.0\nsamples = 2\nvalue = [2, 0]"] ;
676 -> 677 ;
678 [label="gini = 0.0\nsamples = 1\nvalue = [0, 1]"] ;
676 -> 678 ;
679 [label="Metro_los-angeles <= 0.5\ngini = 0.32\nsamples = 5\nvalue = [4, 1]"] ;
653 -> 679 ;
680 [label="gini = 0.0\nsamples = 4\nvalue = [4, 0]"] ;
679 -> 680 ;
681 [label="gini = 0.0\nsamples = 1\nvalue = [0, 1]"] ;
679 -> 681 ;
682 [label="DaysEnroltoStart <= 82.5\ngini = 0.2604\nsamples = 13\nvalue = [11, 2]"] ;
652 -> 682 ;
683 [label="gini = 0.0\nsamples = 2\nvalue = [0, 2]"] ;
682 -> 683 ;
684 [label="gini = 0.0\nsamples = 11\nvalue = [11, 0]"] ;
682 -> 684 ;
685 [label="EnrolDay_Sunday <= 0.5\ngini = 0.4444\nsamples = 3\nvalue = [2, 1]"] ;
651 -> 685 ;
686 [label="gini = 0.0\nsamples = 1\nvalue = [0, 1]"] ;
685 -> 686 ;
687 [label="gini = 0.0\nsamples = 2\nvalue = [2, 0]"] ;
685 -> 687 ;
688 [label="DaysLeadtoEnroled <= 21.5\ngini = 0.3457\nsamples = 9\nvalue = [7, 2]"] ;
650 -> 688 ;
689 [label="gini = 0.0\nsamples = 5\nvalue = [5, 0]"] ;
688 -> 689 ;
690 [label="DaysLeadtoEnroled <= 26.5\ngini = 0.5\nsamples = 4\nvalue = [2, 2]"] ;
688 -> 690 ;
691 [label="gini = 0.0\nsamples = 2\nvalue = [0, 2]"] ;
690 -> 691 ;
692 [label="gini = 0.0\nsamples = 2\nvalue = [2, 0]"] ;
690 -> 692 ;
693 [label="PardotCategory_Livestream Purchase <= 0.5\ngini = 0.0416\nsamples = 94\nvalue = [92, 2]"] ;
575 -> 693 ;
694 [label="Metro_singapore <= 0.5\ngini = 0.0213\nsamples = 93\nvalue = [92, 1]"] ;
693 -> 694 ;
695 [label="gini = 0.0\nsamples = 86\nvalue = [86, 0]"] ;
694 -> 695 ;
696 [label="EnrolDay_Friday <= 0.5\ngini = 0.2449\nsamples = 7\nvalue = [6, 1]"] ;
694 -> 696 ;
697 [label="gini = 0.0\nsamples = 6\nvalue = [6, 0]"] ;
696 -> 697 ;
698 [label="gini = 0.0\nsamples = 1\nvalue = [0, 1]"] ;
696 -> 698 ;
699 [label="gini = 0.0\nsamples = 1\nvalue = [0, 1]"] ;
693 -> 699 ;
700 [label="gini = 0.0\nsamples = 1\nvalue = [0, 1]"] ;
514 -> 700 ;
701 [label="Course_data-science <= 0.5\ngini = 0.123\nsamples = 714\nvalue = [667, 47]"] ;
513 -> 701 ;
702 [label="Enddate <= 20160404.0\ngini = 0.1494\nsamples = 541\nvalue = [497, 44]"] ;
701 -> 702 ;
703 [label="Enddate <= 20160320.0\ngini = 0.1666\nsamples = 469\nvalue = [426, 43]"] ;
702 -> 703 ;
704 [label="ApplicationType_cwe_feedback <= 0.5\ngini = 0.1556\nsamples = 447\nvalue = [409, 38]"] ;
703 -> 704 ;
705 [label="DaysEnroltoStart <= 12.5\ngini = 0.1525\nsamples = 445\nvalue = [408, 37]"] ;
704 -> 705 ;
706 [label="Month <= 48.5\ngini = 0.0701\nsamples = 110\nvalue = [106, 4]"] ;
705 -> 706 ;
707 [label="PardotCategory_Partner Event <= 0.5\ngini = 0.054\nsamples = 108\nvalue = [105, 3]"] ;
706 -> 707 ;
708 [label="Course_android-development-immersive <= 0.5\ngini = 0.0381\nsamples = 103\nvalue = [101, 2]"] ;
707 -> 708 ;
709 [label="EnrolDate <= 16.5\ngini = 0.0206\nsamples = 96\nvalue = [95, 1]"] ;
708 -> 709 ;
710 [label="PardotCategory_Unknown <= 0.5\ngini = 0.1049\nsamples = 18\nvalue = [17, 1]"] ;
709 -> 710 ;
711 [label="gini = 0.0\nsamples = 14\nvalue = [14, 0]"] ;
710 -> 711 ;
712 [label="ExpectedPayment_Unknown <= 0.5\ngini = 0.375\nsamples = 4\nvalue = [3, 1]"] ;
710 -> 712 ;
713 [label="gini = 0.0\nsamples = 3\nvalue = [3, 0]"] ;
712 -> 713 ;
714 [label="gini = 0.0\nsamples = 1\nvalue = [0, 1]"] ;
712 -> 714 ;
715 [label="gini = 0.0\nsamples = 78\nvalue = [78, 0]"] ;
709 -> 715 ;
716 [label="PardotCategory_Facebook Acquisition <= 0.5\ngini = 0.2449\nsamples = 7\nvalue = [6, 1]"] ;
708 -> 716 ;
717 [label="ApplicationType_financing contact us <= 0.5\ngini = 0.5\nsamples = 2\nvalue = [1, 1]"] ;
716 -> 717 ;
718 [label="gini = 0.0\nsamples = 1\nvalue = [0, 1]"] ;
717 -> 718 ;
719 [label="gini = 0.0\nsamples = 1\nvalue = [1, 0]"] ;
717 -> 719 ;
720 [label="gini = 0.0\nsamples = 5\nvalue = [5, 0]"] ;
716 -> 720 ;
721 [label="EnrolDay_Sunday <= 0.5\ngini = 0.32\nsamples = 5\nvalue = [4, 1]"] ;
707 -> 721 ;
722 [label="gini = 0.0\nsamples = 4\nvalue = [4, 0]"] ;
721 -> 722 ;
723 [label="gini = 0.0\nsamples = 1\nvalue = [0, 1]"] ;
721 -> 723 ;
724 [label="Enddate <= 20160260.0\ngini = 0.5\nsamples = 2\nvalue = [1, 1]"] ;
706 -> 724 ;
725 [label="gini = 0.0\nsamples = 1\nvalue = [0, 1]"] ;
724 -> 725 ;
726 [label="gini = 0.0\nsamples = 1\nvalue = [1, 0]"] ;
724 -> 726 ;
727 [label="DaysEnroltoStart <= 14.5\ngini = 0.1776\nsamples = 335\nvalue = [302, 33]"] ;
705 -> 727 ;
728 [label="Price <= 12500.0\ngini = 0.3418\nsamples = 32\nvalue = [25, 7]"] ;
727 -> 728 ;
729 [label="EnrolDay_Friday <= 0.5\ngini = 0.2778\nsamples = 30\nvalue = [25, 5]"] ;
728 -> 729 ;
730 [label="Metro_singapore <= 0.5\ngini = 0.2378\nsamples = 29\nvalue = [25, 4]"] ;
729 -> 730 ;
731 [label="Metro_washington-dc <= 0.5\ngini = 0.1472\nsamples = 25\nvalue = [23, 2]"] ;
730 -> 731 ;
732 [label="Course_back-end-web-development <= 0.5\ngini = 0.0799\nsamples = 24\nvalue = [23, 1]"] ;
731 -> 732 ;
733 [label="gini = 0.0\nsamples = 19\nvalue = [19, 0]"] ;
732 -> 733 ;
734 [label="ApplicationType_request info <= 0.5\ngini = 0.32\nsamples = 5\nvalue = [4, 1]"] ;
732 -> 734 ;
735 [label="gini = 0.0\nsamples = 4\nvalue = [4, 0]"] ;
734 -> 735 ;
736 [label="gini = 0.0\nsamples = 1\nvalue = [0, 1]"] ;
734 -> 736 ;
737 [label="gini = 0.0\nsamples = 1\nvalue = [0, 1]"] ;
731 -> 737 ;
738 [label="DaysLeadtoEnroled <= 6.5\ngini = 0.5\nsamples = 4\nvalue = [2, 2]"] ;
730 -> 738 ;
739 [label="gini = 0.0\nsamples = 2\nvalue = [0, 2]"] ;
738 -> 739 ;
740 [label="gini = 0.0\nsamples = 2\nvalue = [2, 0]"] ;
738 -> 740 ;
741 [label="gini = 0.0\nsamples = 1\nvalue = [0, 1]"] ;
729 -> 741 ;
742 [label="gini = 0.0\nsamples = 2\nvalue = [0, 2]"] ;
728 -> 742 ;
743 [label="Month <= 3.5\ngini = 0.1569\nsamples = 303\nvalue = [277, 26]"] ;
727 -> 743 ;
744 [label="DaysLeadtoEnroled <= 9.5\ngini = 0.426\nsamples = 13\nvalue = [9, 4]"] ;
743 -> 744 ;
745 [label="EnrolDate <= 22.0\ngini = 0.4444\nsamples = 6\nvalue = [2, 4]"] ;
744 -> 745 ;
746 [label="Metro_washington-dc <= 0.5\ngini = 0.32\nsamples = 5\nvalue = [1, 4]"] ;
745 -> 746 ;
747 [label="gini = 0.0\nsamples = 4\nvalue = [0, 4]"] ;
746 -> 747 ;
748 [label="gini = 0.0\nsamples = 1\nvalue = [1, 0]"] ;
746 -> 748 ;
749 [label="gini = 0.0\nsamples = 1\nvalue = [1, 0]"] ;
745 -> 749 ;
750 [label="gini = 0.0\nsamples = 7\nvalue = [7, 0]"] ;
744 -> 750 ;
751 [label="DaysLeadtoEnroled <= 10.5\ngini = 0.1402\nsamples = 290\nvalue = [268, 22]"] ;
743 -> 751 ;
752 [label="PardotCategory_GA Front Row Signup <= 0.5\ngini = 0.0354\nsamples = 111\nvalue = [109, 2]"] ;
751 -> 752 ;
753 [label="Metro_washington-dc <= 0.5\ngini = 0.0189\nsamples = 105\nvalue = [104, 1]"] ;
752 -> 753 ;
754 [label="gini = 0.0\nsamples = 86\nvalue = [86, 0]"] ;
753 -> 754 ;
755 [label="PardotCategory_Unknown <= 0.5\ngini = 0.0997\nsamples = 19\nvalue = [18, 1]"] ;
753 -> 755 ;
756 [label="gini = 0.0\nsamples = 15\nvalue = [15, 0]"] ;
755 -> 756 ;
757 [label="DaysLeadtoEnroled <= 3.5\ngini = 0.375\nsamples = 4\nvalue = [3, 1]"] ;
755 -> 757 ;
758 [label="gini = 0.0\nsamples = 3\nvalue = [3, 0]"] ;
757 -> 758 ;
759 [label="gini = 0.0\nsamples = 1\nvalue = [0, 1]"] ;
757 -> 759 ;
760 [label="Enddate <= 20155522.0\ngini = 0.2778\nsamples = 6\nvalue = [5, 1]"] ;
752 -> 760 ;
761 [label="gini = 0.0\nsamples = 5\nvalue = [5, 0]"] ;
760 -> 761 ;
762 [label="gini = 0.0\nsamples = 1\nvalue = [0, 1]"] ;
760 -> 762 ;
763 [label="DaysEnroltoStart <= 53.0\ngini = 0.1985\nsamples = 179\nvalue = [159, 20]"] ;
751 -> 763 ;
764 [label="DaysEnroltoStart <= 51.5\ngini = 0.2378\nsamples = 145\nvalue = [125, 20]"] ;
763 -> 764 ;
765 [label="DaysLeadtoEnroled <= 18.5\ngini = 0.2241\nsamples = 140\nvalue = [122, 18]"] ;
764 -> 765 ;
766 [label="PardotCategory_Partner Event <= 0.5\ngini = 0.2975\nsamples = 66\nvalue = [54, 12]"] ;
765 -> 766 ;
767 [label="Course_user-experience-design <= 0.5\ngini = 0.2812\nsamples = 65\nvalue = [54, 11]"] ;
766 -> 767 ;
768 [label="EnrolDate <= 21.5\ngini = 0.2637\nsamples = 64\nvalue = [54, 10]"] ;
767 -> 768 ;
769 [label="DaysLeadtoEnroled <= 12.5\ngini = 0.1975\nsamples = 54\nvalue = [48, 6]"] ;
768 -> 769 ;
770 [label="Month <= 29.5\ngini = 0.3599\nsamples = 17\nvalue = [13, 4]"] ;
769 -> 770 ;
771 [label="gini = 0.0\nsamples = 7\nvalue = [7, 0]"] ;
770 -> 771 ;
772 [label="PardotCategory_Facebook Acquisition <= 0.5\ngini = 0.48\nsamples = 10\nvalue = [6, 4]"] ;
770 -> 772 ;
773 [label="gini = 0.0\nsamples = 2\nvalue = [0, 2]"] ;
772 -> 773 ;
774 [label="EnrolHour <= 201458.5\ngini = 0.375\nsamples = 8\nvalue = [6, 2]"] ;
772 -> 774 ;
775 [label="ApplicationType_financing contact us <= 0.5\ngini = 0.4444\nsamples = 3\nvalue = [1, 2]"] ;
774 -> 775 ;
776 [label="gini = 0.0\nsamples = 1\nvalue = [1, 0]"] ;
775 -> 776 ;
777 [label="gini = 0.0\nsamples = 2\nvalue = [0, 2]"] ;
775 -> 777 ;
778 [label="gini = 0.0\nsamples = 5\nvalue = [5, 0]"] ;
774 -> 778 ;
779 [label="DaysLeadtoEnroled <= 17.5\ngini = 0.1023\nsamples = 37\nvalue = [35, 2]"] ;
769 -> 779 ;
780 [label="gini = 0.0\nsamples = 31\nvalue = [31, 0]"] ;
779 -> 780 ;
781 [label="Month <= 32.5\ngini = 0.4444\nsamples = 6\nvalue = [4, 2]"] ;
779 -> 781 ;
782 [label="EnrolDay_Friday <= 0.5\ngini = 0.4444\nsamples = 3\nvalue = [1, 2]"] ;
781 -> 782 ;
783 [label="gini = 0.0\nsamples = 2\nvalue = [0, 2]"] ;
782 -> 783 ;
784 [label="gini = 0.0\nsamples = 1\nvalue = [1, 0]"] ;
782 -> 784 ;
785 [label="gini = 0.0\nsamples = 3\nvalue = [3, 0]"] ;
781 -> 785 ;
786 [label="Month <= 20.0\ngini = 0.48\nsamples = 10\nvalue = [6, 4]"] ;
768 -> 786 ;
787 [label="gini = 0.0\nsamples = 3\nvalue = [0, 3]"] ;
786 -> 787 ;
788 [label="EnrolDay_Thursday <= 0.5\ngini = 0.2449\nsamples = 7\nvalue = [6, 1]"] ;
786 -> 788 ;
789 [label="gini = 0.0\nsamples = 6\nvalue = [6, 0]"] ;
788 -> 789 ;
790 [label="gini = 0.0\nsamples = 1\nvalue = [0, 1]"] ;
788 -> 790 ;
791 [label="gini = 0.0\nsamples = 1\nvalue = [0, 1]"] ;
767 -> 791 ;
792 [label="gini = 0.0\nsamples = 1\nvalue = [0, 1]"] ;
766 -> 792 ;
793 [label="Course_ios-development <= 0.5\ngini = 0.149\nsamples = 74\nvalue = [68, 6]"] ;
765 -> 793 ;
794 [label="ExpectedPayment_Scholarship <= 0.5\ngini = 0.1123\nsamples = 67\nvalue = [63, 4]"] ;
793 -> 794 ;
795 [label="PardotCategory_CWE Purchase <= 0.5\ngini = 0.0392\nsamples = 50\nvalue = [49, 1]"] ;
794 -> 795 ;
796 [label="gini = 0.0\nsamples = 48\nvalue = [48, 0]"] ;
795 -> 796 ;
797 [label="DaysEnroltoStart <= 23.5\ngini = 0.5\nsamples = 2\nvalue = [1, 1]"] ;
795 -> 797 ;
798 [label="gini = 0.0\nsamples = 1\nvalue = [1, 0]"] ;
797 -> 798 ;
799 [label="gini = 0.0\nsamples = 1\nvalue = [0, 1]"] ;
797 -> 799 ;
800 [label="PardotCategory_Uncategorized <= 0.5\ngini = 0.2907\nsamples = 17\nvalue = [14, 3]"] ;
794 -> 800 ;
801 [label="Month <= 42.5\ngini = 0.1327\nsamples = 14\nvalue = [13, 1]"] ;
800 -> 801 ;
802 [label="gini = 0.0\nsamples = 13\nvalue = [13, 0]"] ;
801 -> 802 ;
803 [label="gini = 0.0\nsamples = 1\nvalue = [0, 1]"] ;
801 -> 803 ;
804 [label="PardotCategory_Website <= 0.5\ngini = 0.4444\nsamples = 3\nvalue = [1, 2]"] ;
800 -> 804 ;
805 [label="gini = 0.0\nsamples = 2\nvalue = [0, 2]"] ;
804 -> 805 ;
806 [label="gini = 0.0\nsamples = 1\nvalue = [1, 0]"] ;
804 -> 806 ;
807 [label="DaysEnroltoStart <= 23.0\ngini = 0.4082\nsamples = 7\nvalue = [5, 2]"] ;
793 -> 807 ;
808 [label="gini = 0.0\nsamples = 2\nvalue = [0, 2]"] ;
807 -> 808 ;
809 [label="gini = 0.0\nsamples = 5\nvalue = [5, 0]"] ;
807 -> 809 ;
810 [label="EnrolHour <= 201504.5\ngini = 0.48\nsamples = 5\nvalue = [3, 2]"] ;
764 -> 810 ;
811 [label="gini = 0.0\nsamples = 3\nvalue = [3, 0]"] ;
810 -> 811 ;
812 [label="gini = 0.0\nsamples = 2\nvalue = [0, 2]"] ;
810 -> 812 ;
813 [label="gini = 0.0\nsamples = 34\nvalue = [34, 0]"] ;
763 -> 813 ;
814 [label="ApplicationType_request info <= 0.5\ngini = 0.5\nsamples = 2\nvalue = [1, 1]"] ;
704 -> 814 ;
815 [label="gini = 0.0\nsamples = 1\nvalue = [0, 1]"] ;
814 -> 815 ;
816 [label="gini = 0.0\nsamples = 1\nvalue = [1, 0]"] ;
814 -> 816 ;
817 [label="DaysEnroltoStart <= 51.0\ngini = 0.3512\nsamples = 22\nvalue = [17, 5]"] ;
703 -> 817 ;
818 [label="PardotCategory_Partner Event <= 0.5\ngini = 0.1975\nsamples = 18\nvalue = [16, 2]"] ;
817 -> 818 ;
819 [label="PardotCategory_CWE Purchase <= 0.5\ngini = 0.1107\nsamples = 17\nvalue = [16, 1]"] ;
818 -> 819 ;
820 [label="gini = 0.0\nsamples = 15\nvalue = [15, 0]"] ;
819 -> 820 ;
821 [label="DaysLeadtoEnroled <= 22.0\ngini = 0.5\nsamples = 2\nvalue = [1, 1]"] ;
819 -> 821 ;
822 [label="gini = 0.0\nsamples = 1\nvalue = [0, 1]"] ;
821 -> 822 ;
823 [label="gini = 0.0\nsamples = 1\nvalue = [1, 0]"] ;
821 -> 823 ;
824 [label="gini = 0.0\nsamples = 1\nvalue = [0, 1]"] ;
818 -> 824 ;
825 [label="EnrolDate <= 17.0\ngini = 0.375\nsamples = 4\nvalue = [1, 3]"] ;
817 -> 825 ;
826 [label="gini = 0.0\nsamples = 1\nvalue = [1, 0]"] ;
825 -> 826 ;
827 [label="gini = 0.0\nsamples = 3\nvalue = [0, 3]"] ;
825 -> 827 ;
828 [label="DaysLeadtoEnroled <= 2.5\ngini = 0.0274\nsamples = 72\nvalue = [71, 1]"] ;
702 -> 828 ;
829 [label="DaysLeadtoEnroled <= 1.5\ngini = 0.2778\nsamples = 6\nvalue = [5, 1]"] ;
828 -> 829 ;
830 [label="gini = 0.0\nsamples = 5\nvalue = [5, 0]"] ;
829 -> 830 ;
831 [label="gini = 0.0\nsamples = 1\nvalue = [0, 1]"] ;
829 -> 831 ;
832 [label="gini = 0.0\nsamples = 66\nvalue = [66, 0]"] ;
828 -> 832 ;
833 [label="Metro_atlanta <= 0.5\ngini = 0.0341\nsamples = 173\nvalue = [170, 3]"] ;
701 -> 833 ;
834 [label="Startdate <= 20140860.0\ngini = 0.0234\nsamples = 169\nvalue = [167, 2]"] ;
833 -> 834 ;
835 [label="DaysLeadtoEnroled <= 16.5\ngini = 0.32\nsamples = 5\nvalue = [4, 1]"] ;
834 -> 835 ;
836 [label="gini = 0.0\nsamples = 4\nvalue = [4, 0]"] ;
835 -> 836 ;
837 [label="gini = 0.0\nsamples = 1\nvalue = [0, 1]"] ;
835 -> 837 ;
838 [label="Metro_denver <= 0.5\ngini = 0.0121\nsamples = 164\nvalue = [163, 1]"] ;
834 -> 838 ;
839 [label="gini = 0.0\nsamples = 152\nvalue = [152, 0]"] ;
838 -> 839 ;
840 [label="Month <= 7.5\ngini = 0.1528\nsamples = 12\nvalue = [11, 1]"] ;
838 -> 840 ;
841 [label="EnrolDay_Friday <= 0.5\ngini = 0.5\nsamples = 2\nvalue = [1, 1]"] ;
840 -> 841 ;
842 [label="gini = 0.0\nsamples = 1\nvalue = [0, 1]"] ;
841 -> 842 ;
843 [label="gini = 0.0\nsamples = 1\nvalue = [1, 0]"] ;
841 -> 843 ;
844 [label="gini = 0.0\nsamples = 10\nvalue = [10, 0]"] ;
840 -> 844 ;
845 [label="ExpectedPayment_Unknown <= 0.5\ngini = 0.375\nsamples = 4\nvalue = [3, 1]"] ;
833 -> 845 ;
846 [label="gini = 0.0\nsamples = 3\nvalue = [3, 0]"] ;
845 -> 846 ;
847 [label="gini = 0.0\nsamples = 1\nvalue = [0, 1]"] ;
845 -> 847 ;
848 [label="Enddate <= 20145772.0\ngini = 0.4082\nsamples = 7\nvalue = [5, 2]"] ;
512 -> 848 ;
849 [label="gini = 0.0\nsamples = 1\nvalue = [0, 1]"] ;
848 -> 849 ;
850 [label="Metro_singapore <= 0.5\ngini = 0.2778\nsamples = 6\nvalue = [5, 1]"] ;
848 -> 850 ;
851 [label="gini = 0.0\nsamples = 5\nvalue = [5, 0]"] ;
850 -> 851 ;
852 [label="gini = 0.0\nsamples = 1\nvalue = [0, 1]"] ;
850 -> 852 ;
853 [label="EnrolDay_Sunday <= 0.5\ngini = 0.3403\nsamples = 23\nvalue = [18, 5]"] ;
511 -> 853 ;
854 [label="DaysEnroltoStart <= 119.5\ngini = 0.1884\nsamples = 19\nvalue = [17, 2]"] ;
853 -> 854 ;
855 [label="DaysEnroltoStart <= 114.0\ngini = 0.32\nsamples = 10\nvalue = [8, 2]"] ;
854 -> 855 ;
856 [label="gini = 0.0\nsamples = 6\nvalue = [6, 0]"] ;
855 -> 856 ;
857 [label="EnrolDate <= 13.0\ngini = 0.5\nsamples = 4\nvalue = [2, 2]"] ;
855 -> 857 ;
858 [label="gini = 0.0\nsamples = 2\nvalue = [2, 0]"] ;
857 -> 858 ;
859 [label="gini = 0.0\nsamples = 2\nvalue = [0, 2]"] ;
857 -> 859 ;
860 [label="gini = 0.0\nsamples = 9\nvalue = [9, 0]"] ;
854 -> 860 ;
861 [label="PhoneValid <= 0.5\ngini = 0.375\nsamples = 4\nvalue = [1, 3]"] ;
853 -> 861 ;
862 [label="gini = 0.0\nsamples = 1\nvalue = [1, 0]"] ;
861 -> 862 ;
863 [label="gini = 0.0\nsamples = 3\nvalue = [0, 3]"] ;
861 -> 863 ;
864 [label="Enddate <= 20160702.0\ngini = 0.1902\nsamples = 808\nvalue = [722, 86]"] ;
510 -> 864 ;
865 [label="Month <= 3.0\ngini = 0.3378\nsamples = 79\nvalue = [62, 17]"] ;
864 -> 865 ;
866 [label="gini = 0.0\nsamples = 2\nvalue = [0, 2]"] ;
865 -> 866 ;
867 [label="Year <= 0.035\ngini = 0.3137\nsamples = 77\nvalue = [62, 15]"] ;
865 -> 867 ;
868 [label="ExpectedPayment_Unknown <= 0.5\ngini = 0.375\nsamples = 4\nvalue = [1, 3]"] ;
867 -> 868 ;
869 [label="gini = 0.0\nsamples = 3\nvalue = [0, 3]"] ;
868 -> 869 ;
870 [label="gini = 0.0\nsamples = 1\nvalue = [1, 0]"] ;
868 -> 870 ;
871 [label="EnrolDate <= 1.5\ngini = 0.2747\nsamples = 73\nvalue = [61, 12]"] ;
867 -> 871 ;
872 [label="DaysEnroltoStart <= 8.0\ngini = 0.4444\nsamples = 3\nvalue = [1, 2]"] ;
871 -> 872 ;
873 [label="gini = 0.0\nsamples = 1\nvalue = [1, 0]"] ;
872 -> 873 ;
874 [label="gini = 0.0\nsamples = 2\nvalue = [0, 2]"] ;
872 -> 874 ;
875 [label="DaysEnroltoStart <= 28.5\ngini = 0.2449\nsamples = 70\nvalue = [60, 10]"] ;
871 -> 875 ;
876 [label="Metro_atlanta <= 0.5\ngini = 0.3488\nsamples = 40\nvalue = [31, 9]"] ;
875 -> 876 ;
877 [label="ApplicationType_financing contact us <= 0.5\ngini = 0.3006\nsamples = 38\nvalue = [31, 7]"] ;
876 -> 877 ;
878 [label="DaysEnroltoStart <= 25.5\ngini = 0.1855\nsamples = 29\nvalue = [26, 3]"] ;
877 -> 878 ;
879 [label="Metro_singapore <= 0.5\ngini = 0.1327\nsamples = 28\nvalue = [26, 2]"] ;
878 -> 879 ;
880 [label="gini = 0.0\nsamples = 24\nvalue = [24, 0]"] ;
879 -> 880 ;
881 [label="DaysLeadtoEnroled <= 9.0\ngini = 0.5\nsamples = 4\nvalue = [2, 2]"] ;
879 -> 881 ;
882 [label="gini = 0.0\nsamples = 2\nvalue = [0, 2]"] ;
881 -> 882 ;
883 [label="gini = 0.0\nsamples = 2\nvalue = [2, 0]"] ;
881 -> 883 ;
884 [label="gini = 0.0\nsamples = 1\nvalue = [0, 1]"] ;
878 -> 884 ;
885 [label="DaysEnroltoStart <= 20.5\ngini = 0.4938\nsamples = 9\nvalue = [5, 4]"] ;
877 -> 885 ;
886 [label="DaysLeadtoEnroled <= 27.5\ngini = 0.32\nsamples = 5\nvalue = [1, 4]"] ;
885 -> 886 ;
887 [label="gini = 0.0\nsamples = 4\nvalue = [0, 4]"] ;
886 -> 887 ;
888 [label="gini = 0.0\nsamples = 1\nvalue = [1, 0]"] ;
886 -> 888 ;
889 [label="gini = 0.0\nsamples = 4\nvalue = [4, 0]"] ;
885 -> 889 ;
890 [label="gini = 0.0\nsamples = 2\nvalue = [0, 2]"] ;
876 -> 890 ;
891 [label="ApplicationType_lander <= 0.5\ngini = 0.0644\nsamples = 30\nvalue = [29, 1]"] ;
875 -> 891 ;
892 [label="gini = 0.0\nsamples = 28\nvalue = [28, 0]"] ;
891 -> 892 ;
893 [label="Month <= 7.0\ngini = 0.5\nsamples = 2\nvalue = [1, 1]"] ;
891 -> 893 ;
894 [label="gini = 0.0\nsamples = 1\nvalue = [0, 1]"] ;
893 -> 894 ;
895 [label="gini = 0.0\nsamples = 1\nvalue = [1, 0]"] ;
893 -> 895 ;
896 [label="EnrolDay_Friday <= 0.5\ngini = 0.1714\nsamples = 729\nvalue = [660, 69]"] ;
864 -> 896 ;
897 [label="DaysLeadtoEnroled <= 20.5\ngini = 0.1586\nsamples = 668\nvalue = [610, 58]"] ;
896 -> 897 ;
898 [label="PardotCategory_Unknown <= 0.5\ngini = 0.1251\nsamples = 492\nvalue = [459, 33]"] ;
897 -> 898 ;
899 [label="Year <= 1.445\ngini = 0.1008\nsamples = 357\nvalue = [338, 19]"] ;
898 -> 899 ;
900 [label="APAC <= 0.5\ngini = 0.0387\nsamples = 152\nvalue = [149, 3]"] ;
899 -> 900 ;
901 [label="Month <= 12.5\ngini = 0.0139\nsamples = 143\nvalue = [142, 1]"] ;
900 -> 901 ;
902 [label="DaysLeadtoEnroled <= 5.5\ngini = 0.4444\nsamples = 3\nvalue = [2, 1]"] ;
901 -> 902 ;
903 [label="gini = 0.0\nsamples = 1\nvalue = [0, 1]"] ;
902 -> 903 ;
904 [label="gini = 0.0\nsamples = 2\nvalue = [2, 0]"] ;
902 -> 904 ;
905 [label="gini = 0.0\nsamples = 140\nvalue = [140, 0]"] ;
901 -> 905 ;
906 [label="DaysLeadtoEnroled <= 16.5\ngini = 0.3457\nsamples = 9\nvalue = [7, 2]"] ;
900 -> 906 ;
907 [label="Year <= 0.93\ngini = 0.2188\nsamples = 8\nvalue = [7, 1]"] ;
906 -> 907 ;
908 [label="gini = 0.0\nsamples = 7\nvalue = [7, 0]"] ;
907 -> 908 ;
909 [label="gini = 0.0\nsamples = 1\nvalue = [0, 1]"] ;
907 -> 909 ;
910 [label="gini = 0.0\nsamples = 1\nvalue = [0, 1]"] ;
906 -> 910 ;
911 [label="Year <= 1.475\ngini = 0.1439\nsamples = 205\nvalue = [189, 16]"] ;
899 -> 911 ;
912 [label="gini = 0.0\nsamples = 1\nvalue = [0, 1]"] ;
911 -> 912 ;
913 [label="PardotCategory_Twitter Promoted <= 0.5\ngini = 0.1362\nsamples = 204\nvalue = [189, 15]"] ;
911 -> 913 ;
914 [label="SpeedtoLead <= 0.5\ngini = 0.129\nsamples = 202\nvalue = [188, 14]"] ;
913 -> 914 ;
915 [label="Metro_los-angeles <= 0.5\ngini = 0.1078\nsamples = 175\nvalue = [165, 10]"] ;
914 -> 915 ;
916 [label="Metro_melbourne <= 0.5\ngini = 0.0444\nsamples = 88\nvalue = [86, 2]"] ;
915 -> 916 ;
917 [label="PardotCategory_CWE Purchase <= 0.5\ngini = 0.0238\nsamples = 83\nvalue = [82, 1]"] ;
916 -> 917 ;
918 [label="gini = 0.0\nsamples = 77\nvalue = [77, 0]"] ;
917 -> 918 ;
919 [label="Price <= 11250.0\ngini = 0.2778\nsamples = 6\nvalue = [5, 1]"] ;
917 -> 919 ;
920 [label="gini = 0.0\nsamples = 5\nvalue = [5, 0]"] ;
919 -> 920 ;
921 [label="gini = 0.0\nsamples = 1\nvalue = [0, 1]"] ;
919 -> 921 ;
922 [label="ExpectedPayment_Unknown <= 0.5\ngini = 0.32\nsamples = 5\nvalue = [4, 1]"] ;
916 -> 922 ;
923 [label="gini = 0.0\nsamples = 4\nvalue = [4, 0]"] ;
922 -> 923 ;
924 [label="gini = 0.0\nsamples = 1\nvalue = [0, 1]"] ;
922 -> 924 ;
925 [label="PhoneValid <= 0.5\ngini = 0.167\nsamples = 87\nvalue = [79, 8]"] ;
915 -> 925 ;
926 [label="DaysEnroltoStart <= 29.0\ngini = 0.375\nsamples = 12\nvalue = [9, 3]"] ;
925 -> 926 ;
927 [label="Startdate <= 20160572.0\ngini = 0.18\nsamples = 10\nvalue = [9, 1]"] ;
926 -> 927 ;
928 [label="Enddate <= 20160756.0\ngini = 0.5\nsamples = 2\nvalue = [1, 1]"] ;
927 -> 928 ;
929 [label="gini = 0.0\nsamples = 1\nvalue = [1, 0]"] ;
928 -> 929 ;
930 [label="gini = 0.0\nsamples = 1\nvalue = [0, 1]"] ;
928 -> 930 ;
931 [label="gini = 0.0\nsamples = 8\nvalue = [8, 0]"] ;
927 -> 931 ;
932 [label="gini = 0.0\nsamples = 2\nvalue = [0, 2]"] ;
926 -> 932 ;
933 [label="Year <= 1.975\ngini = 0.1244\nsamples = 75\nvalue = [70, 5]"] ;
925 -> 933 ;
934 [label="DaysLeadtoEnroled <= 4.5\ngini = 0.4082\nsamples = 7\nvalue = [5, 2]"] ;
933 -> 934 ;
935 [label="EnrolHour <= 201606.5\ngini = 0.4444\nsamples = 3\nvalue = [1, 2]"] ;
934 -> 935 ;
936 [label="gini = 0.0\nsamples = 2\nvalue = [0, 2]"] ;
935 -> 936 ;
937 [label="gini = 0.0\nsamples = 1\nvalue = [1, 0]"] ;
935 -> 937 ;
938 [label="gini = 0.0\nsamples = 4\nvalue = [4, 0]"] ;
934 -> 938 ;
939 [label="DaysEnroltoStart <= 8.5\ngini = 0.0843\nsamples = 68\nvalue = [65, 3]"] ;
933 -> 939 ;
940 [label="ExpectedPayment_Unknown <= 0.5\ngini = 0.2311\nsamples = 15\nvalue = [13, 2]"] ;
939 -> 940 ;
941 [label="gini = 0.0\nsamples = 9\nvalue = [9, 0]"] ;
940 -> 941 ;
942 [label="Month <= 38.5\ngini = 0.4444\nsamples = 6\nvalue = [4, 2]"] ;
940 -> 942 ;
943 [label="Course_back-end-web-development <= 0.5\ngini = 0.32\nsamples = 5\nvalue = [4, 1]"] ;
942 -> 943 ;
944 [label="gini = 0.0\nsamples = 4\nvalue = [4, 0]"] ;
943 -> 944 ;
945 [label="gini = 0.0\nsamples = 1\nvalue = [0, 1]"] ;
943 -> 945 ;
946 [label="gini = 0.0\nsamples = 1\nvalue = [0, 1]"] ;
942 -> 946 ;
947 [label="EnrolDate <= 21.5\ngini = 0.037\nsamples = 53\nvalue = [52, 1]"] ;
939 -> 947 ;
948 [label="gini = 0.0\nsamples = 50\nvalue = [50, 0]"] ;
947 -> 948 ;
949 [label="DaysLeadtoEnroled <= 11.0\ngini = 0.4444\nsamples = 3\nvalue = [2, 1]"] ;
947 -> 949 ;
950 [label="gini = 0.0\nsamples = 2\nvalue = [2, 0]"] ;
949 -> 950 ;
951 [label="gini = 0.0\nsamples = 1\nvalue = [0, 1]"] ;
949 -> 951 ;
952 [label="ApplicationType_financing contact us <= 0.5\ngini = 0.2524\nsamples = 27\nvalue = [23, 4]"] ;
914 -> 952 ;
953 [label="Course_ios-development <= 0.5\ngini = 0.2041\nsamples = 26\nvalue = [23, 3]"] ;
952 -> 953 ;
954 [label="DaysLeadtoEnroled <= 14.5\ngini = 0.1472\nsamples = 25\nvalue = [23, 2]"] ;
953 -> 954 ;
955 [label="gini = 0.0\nsamples = 16\nvalue = [16, 0]"] ;
954 -> 955 ;
956 [label="EnrolDate <= 18.5\ngini = 0.3457\nsamples = 9\nvalue = [7, 2]"] ;
954 -> 956 ;
957 [label="ExpectedPayment_Unknown <= 0.5\ngini = 0.2188\nsamples = 8\nvalue = [7, 1]"] ;
956 -> 957 ;
958 [label="gini = 0.0\nsamples = 7\nvalue = [7, 0]"] ;
957 -> 958 ;
959 [label="gini = 0.0\nsamples = 1\nvalue = [0, 1]"] ;
957 -> 959 ;
960 [label="gini = 0.0\nsamples = 1\nvalue = [0, 1]"] ;
956 -> 960 ;
961 [label="gini = 0.0\nsamples = 1\nvalue = [0, 1]"] ;
953 -> 961 ;
962 [label="gini = 0.0\nsamples = 1\nvalue = [0, 1]"] ;
952 -> 962 ;
963 [label="EnrolDate <= 20.5\ngini = 0.5\nsamples = 2\nvalue = [1, 1]"] ;
913 -> 963 ;
964 [label="gini = 0.0\nsamples = 1\nvalue = [0, 1]"] ;
963 -> 964 ;
965 [label="gini = 0.0\nsamples = 1\nvalue = [1, 0]"] ;
963 -> 965 ;
966 [label="ExpectedPayment_Unknown <= 0.5\ngini = 0.1859\nsamples = 135\nvalue = [121, 14]"] ;
898 -> 966 ;
967 [label="PardotCategory_Content Partnership <= 0.5\ngini = 0.101\nsamples = 75\nvalue = [71, 4]"] ;
966 -> 967 ;
968 [label="DaysLeadtoEnroled <= 4.5\ngini = 0.0778\nsamples = 74\nvalue = [71, 3]"] ;
967 -> 968 ;
969 [label="Year <= 1.51\ngini = 0.255\nsamples = 20\nvalue = [17, 3]"] ;
968 -> 969 ;
970 [label="Course_data-science <= 0.5\ngini = 0.4898\nsamples = 7\nvalue = [4, 3]"] ;
969 -> 970 ;
971 [label="gini = 0.0\nsamples = 3\nvalue = [0, 3]"] ;
970 -> 971 ;
972 [label="gini = 0.0\nsamples = 4\nvalue = [4, 0]"] ;
970 -> 972 ;
973 [label="gini = 0.0\nsamples = 13\nvalue = [13, 0]"] ;
969 -> 973 ;
974 [label="gini = 0.0\nsamples = 54\nvalue = [54, 0]"] ;
968 -> 974 ;
975 [label="gini = 0.0\nsamples = 1\nvalue = [0, 1]"] ;
967 -> 975 ;
976 [label="Course_data-analytics <= 0.5\ngini = 0.2778\nsamples = 60\nvalue = [50, 10]"] ;
966 -> 976 ;
977 [label="DaysLeadtoEnroled <= 3.5\ngini = 0.2378\nsamples = 58\nvalue = [50, 8]"] ;
976 -> 977 ;
978 [label="gini = 0.0\nsamples = 20\nvalue = [20, 0]"] ;
977 -> 978 ;
979 [label="DaysEnroltoStart <= 21.5\ngini = 0.3324\nsamples = 38\nvalue = [30, 8]"] ;
977 -> 979 ;
980 [label="DaysEnroltoStart <= 19.0\ngini = 0.4861\nsamples = 12\nvalue = [7, 5]"] ;
979 -> 980 ;
981 [label="DaysLeadtoEnroled <= 8.5\ngini = 0.42\nsamples = 10\nvalue = [7, 3]"] ;
980 -> 981 ;
982 [label="gini = 0.0\nsamples = 4\nvalue = [4, 0]"] ;
981 -> 982 ;
983 [label="DaysLeadtoEnroled <= 14.0\ngini = 0.5\nsamples = 6\nvalue = [3, 3]"] ;
981 -> 983 ;
984 [label="gini = 0.0\nsamples = 2\nvalue = [0, 2]"] ;
983 -> 984 ;
985 [label="Course_data-science <= 0.5\ngini = 0.375\nsamples = 4\nvalue = [3, 1]"] ;
983 -> 985 ;
986 [label="gini = 0.0\nsamples = 3\nvalue = [3, 0]"] ;
985 -> 986 ;
987 [label="gini = 0.0\nsamples = 1\nvalue = [0, 1]"] ;
985 -> 987 ;
988 [label="gini = 0.0\nsamples = 2\nvalue = [0, 2]"] ;
980 -> 988 ;
989 [label="Course_front-end-web-development <= 0.5\ngini = 0.2041\nsamples = 26\nvalue = [23, 3]"] ;
979 -> 989 ;
990 [label="Cancelled <= 0.5\ngini = 0.1472\nsamples = 25\nvalue = [23, 2]"] ;
989 -> 990 ;
991 [label="Year <= 5.0033\ngini = 0.0832\nsamples = 23\nvalue = [22, 1]"] ;
990 -> 991 ;
992 [label="gini = 0.0\nsamples = 15\nvalue = [15, 0]"] ;
991 -> 992 ;
993 [label="Startdate <= 20160718.0\ngini = 0.2188\nsamples = 8\nvalue = [7, 1]"] ;
991 -> 993 ;
994 [label="gini = 0.0\nsamples = 6\nvalue = [6, 0]"] ;
993 -> 994 ;
995 [label="EnrolHour <= 201608.0\ngini = 0.5\nsamples = 2\nvalue = [1, 1]"] ;
993 -> 995 ;
996 [label="gini = 0.0\nsamples = 1\nvalue = [0, 1]"] ;
995 -> 996 ;
997 [label="gini = 0.0\nsamples = 1\nvalue = [1, 0]"] ;
995 -> 997 ;
998 [label="DaysLeadtoEnroled <= 6.0\ngini = 0.5\nsamples = 2\nvalue = [1, 1]"] ;
990 -> 998 ;
999 [label="gini = 0.0\nsamples = 1\nvalue = [0, 1]"] ;
998 -> 999 ;
1000 [label="gini = 0.0\nsamples = 1\nvalue = [1, 0]"] ;
998 -> 1000 ;
1001 [label="gini = 0.0\nsamples = 1\nvalue = [0, 1]"] ;
989 -> 1001 ;
1002 [label="gini = 0.0\nsamples = 2\nvalue = [0, 2]"] ;
976 -> 1002 ;
1003 [label="Startdate <= 20161070.0\ngini = 0.2437\nsamples = 176\nvalue = [151, 25]"] ;
897 -> 1003 ;
1004 [label="Month <= 36.5\ngini = 0.2901\nsamples = 142\nvalue = [117, 25]"] ;
1003 -> 1004 ;
1005 [label="EnrolDay_Thursday <= 0.5\ngini = 0.2482\nsamples = 124\nvalue = [106, 18]"] ;
1004 -> 1005 ;
1006 [label="Month <= 5.5\ngini = 0.1653\nsamples = 88\nvalue = [80, 8]"] ;
1005 -> 1006 ;
1007 [label="gini = 0.0\nsamples = 1\nvalue = [0, 1]"] ;
1006 -> 1007 ;
1008 [label="DaysEnroltoStart <= 17.5\ngini = 0.148\nsamples = 87\nvalue = [80, 7]"] ;
1006 -> 1008 ;
1009 [label="EnrolDate <= 3.5\ngini = 0.2975\nsamples = 22\nvalue = [18, 4]"] ;
1008 -> 1009 ;
1010 [label="DaysEnroltoStart <= 10.0\ngini = 0.4444\nsamples = 3\nvalue = [1, 2]"] ;
1009 -> 1010 ;
1011 [label="gini = 0.0\nsamples = 1\nvalue = [1, 0]"] ;
1010 -> 1011 ;
1012 [label="gini = 0.0\nsamples = 2\nvalue = [0, 2]"] ;
1010 -> 1012 ;
1013 [label="Price <= 3025.0\ngini = 0.1884\nsamples = 19\nvalue = [17, 2]"] ;
1009 -> 1013 ;
1014 [label="gini = 0.0\nsamples = 1\nvalue = [0, 1]"] ;
1013 -> 1014 ;
1015 [label="PardotCategory_CWE Purchase <= 0.5\ngini = 0.1049\nsamples = 18\nvalue = [17, 1]"] ;
1013 -> 1015 ;
1016 [label="gini = 0.0\nsamples = 16\nvalue = [16, 0]"] ;
1015 -> 1016 ;
1017 [label="Course_web-development-immersive-remote <= 0.5\ngini = 0.5\nsamples = 2\nvalue = [1, 1]"] ;
1015 -> 1017 ;
1018 [label="gini = 0.0\nsamples = 1\nvalue = [1, 0]"] ;
1017 -> 1018 ;
1019 [label="gini = 0.0\nsamples = 1\nvalue = [0, 1]"] ;
1017 -> 1019 ;
1020 [label="Enddate <= 20161166.0\ngini = 0.088\nsamples = 65\nvalue = [62, 3]"] ;
1008 -> 1020 ;
1021 [label="gini = 0.0\nsamples = 46\nvalue = [46, 0]"] ;
1020 -> 1021 ;
1022 [label="EnrolDate <= 19.5\ngini = 0.2659\nsamples = 19\nvalue = [16, 3]"] ;
1020 -> 1022 ;
1023 [label="PardotCategory_Website <= 0.5\ngini = 0.1172\nsamples = 16\nvalue = [15, 1]"] ;
1022 -> 1023 ;
1024 [label="gini = 0.0\nsamples = 14\nvalue = [14, 0]"] ;
1023 -> 1024 ;
1025 [label="EnrolHour <= 201607.5\ngini = 0.5\nsamples = 2\nvalue = [1, 1]"] ;
1023 -> 1025 ;
1026 [label="gini = 0.0\nsamples = 1\nvalue = [0, 1]"] ;
1025 -> 1026 ;
1027 [label="gini = 0.0\nsamples = 1\nvalue = [1, 0]"] ;
1025 -> 1027 ;
1028 [label="Month <= 34.5\ngini = 0.4444\nsamples = 3\nvalue = [1, 2]"] ;
1022 -> 1028 ;
1029 [label="gini = 0.0\nsamples = 2\nvalue = [0, 2]"] ;
1028 -> 1029 ;
1030 [label="gini = 0.0\nsamples = 1\nvalue = [1, 0]"] ;
1028 -> 1030 ;
1031 [label="SpeedtoLead <= 0.5\ngini = 0.4012\nsamples = 36\nvalue = [26, 10]"] ;
1005 -> 1031 ;
1032 [label="DaysLeadtoEnroled <= 33.5\ngini = 0.32\nsamples = 30\nvalue = [24, 6]"] ;
1031 -> 1032 ;
1033 [label="Metro_singapore <= 0.5\ngini = 0.2112\nsamples = 25\nvalue = [22, 3]"] ;
1032 -> 1033 ;
1034 [label="Course_back-end-web-development <= 0.5\ngini = 0.1528\nsamples = 24\nvalue = [22, 2]"] ;
1033 -> 1034 ;
1035 [label="Course_front-end-web-development <= 0.5\ngini = 0.0868\nsamples = 22\nvalue = [21, 1]"] ;
1034 -> 1035 ;
1036 [label="gini = 0.0\nsamples = 19\nvalue = [19, 0]"] ;
1035 -> 1036 ;
1037 [label="DaysLeadtoEnroled <= 29.5\ngini = 0.4444\nsamples = 3\nvalue = [2, 1]"] ;
1035 -> 1037 ;
1038 [label="gini = 0.0\nsamples = 2\nvalue = [2, 0]"] ;
1037 -> 1038 ;
1039 [label="gini = 0.0\nsamples = 1\nvalue = [0, 1]"] ;
1037 -> 1039 ;
1040 [label="Startdate <= 20160916.0\ngini = 0.5\nsamples = 2\nvalue = [1, 1]"] ;
1034 -> 1040 ;
1041 [label="gini = 0.0\nsamples = 1\nvalue = [0, 1]"] ;
1040 -> 1041 ;
1042 [label="gini = 0.0\nsamples = 1\nvalue = [1, 0]"] ;
1040 -> 1042 ;
1043 [label="gini = 0.0\nsamples = 1\nvalue = [0, 1]"] ;
1033 -> 1043 ;
1044 [label="DaysEnroltoStart <= 27.0\ngini = 0.48\nsamples = 5\nvalue = [2, 3]"] ;
1032 -> 1044 ;
1045 [label="PardotCategory_CWE Purchase <= 0.5\ngini = 0.4444\nsamples = 3\nvalue = [2, 1]"] ;
1044 -> 1045 ;
1046 [label="gini = 0.0\nsamples = 2\nvalue = [2, 0]"] ;
1045 -> 1046 ;
1047 [label="gini = 0.0\nsamples = 1\nvalue = [0, 1]"] ;
1045 -> 1047 ;
1048 [label="gini = 0.0\nsamples = 2\nvalue = [0, 2]"] ;
1044 -> 1048 ;
1049 [label="EnrolDate <= 10.0\ngini = 0.4444\nsamples = 6\nvalue = [2, 4]"] ;
1031 -> 1049 ;
1050 [label="EnrolHour <= 201606.5\ngini = 0.4444\nsamples = 3\nvalue = [2, 1]"] ;
1049 -> 1050 ;
1051 [label="gini = 0.0\nsamples = 2\nvalue = [2, 0]"] ;
1050 -> 1051 ;
1052 [label="gini = 0.0\nsamples = 1\nvalue = [0, 1]"] ;
1050 -> 1052 ;
1053 [label="gini = 0.0\nsamples = 3\nvalue = [0, 3]"] ;
1049 -> 1053 ;
1054 [label="Enddate <= 20170110.0\ngini = 0.4753\nsamples = 18\nvalue = [11, 7]"] ;
1004 -> 1054 ;
1055 [label="Course_ios-development <= 0.5\ngini = 0.2975\nsamples = 11\nvalue = [9, 2]"] ;
1054 -> 1055 ;
1056 [label="gini = 0.0\nsamples = 8\nvalue = [8, 0]"] ;
1055 -> 1056 ;
1057 [label="ApplicationType_open house <= 0.5\ngini = 0.4444\nsamples = 3\nvalue = [1, 2]"] ;
1055 -> 1057 ;
1058 [label="gini = 0.0\nsamples = 2\nvalue = [0, 2]"] ;
1057 -> 1058 ;
1059 [label="gini = 0.0\nsamples = 1\nvalue = [1, 0]"] ;
1057 -> 1059 ;
1060 [label="DaysLeadtoEnroled <= 26.5\ngini = 0.4082\nsamples = 7\nvalue = [2, 5]"] ;
1054 -> 1060 ;
1061 [label="gini = 0.0\nsamples = 5\nvalue = [0, 5]"] ;
1060 -> 1061 ;
1062 [label="gini = 0.0\nsamples = 2\nvalue = [2, 0]"] ;
1060 -> 1062 ;
1063 [label="gini = 0.0\nsamples = 34\nvalue = [34, 0]"] ;
1003 -> 1063 ;
1064 [label="Year <= 0.29\ngini = 0.2956\nsamples = 61\nvalue = [50, 11]"] ;
896 -> 1064 ;
1065 [label="EnrolDate <= 15.5\ngini = 0.48\nsamples = 10\nvalue = [4, 6]"] ;
1064 -> 1065 ;
1066 [label="DaysLeadtoEnroled <= 8.0\ngini = 0.4444\nsamples = 6\nvalue = [4, 2]"] ;
1065 -> 1066 ;
1067 [label="gini = 0.0\nsamples = 2\nvalue = [0, 2]"] ;
1066 -> 1067 ;
1068 [label="gini = 0.0\nsamples = 4\nvalue = [4, 0]"] ;
1066 -> 1068 ;
1069 [label="gini = 0.0\nsamples = 4\nvalue = [0, 4]"] ;
1065 -> 1069 ;
1070 [label="Month <= 44.5\ngini = 0.1769\nsamples = 51\nvalue = [46, 5]"] ;
1064 -> 1070 ;
1071 [label="EnrolDate <= 22.5\ngini = 0.0799\nsamples = 48\nvalue = [46, 2]"] ;
1070 -> 1071 ;
1072 [label="DaysLeadtoEnroled <= 1.5\ngini = 0.0416\nsamples = 47\nvalue = [46, 1]"] ;
1071 -> 1072 ;
1073 [label="gini = 0.0\nsamples = 1\nvalue = [0, 1]"] ;
1072 -> 1073 ;
1074 [label="gini = 0.0\nsamples = 46\nvalue = [46, 0]"] ;
1072 -> 1074 ;
1075 [label="gini = 0.0\nsamples = 1\nvalue = [0, 1]"] ;
1071 -> 1075 ;
1076 [label="gini = 0.0\nsamples = 3\nvalue = [0, 3]"] ;
1070 -> 1076 ;
1077 [label="Metro_melbourne <= 0.5\ngini = 0.1225\nsamples = 549\nvalue = [513, 36]"] ;
509 -> 1077 ;
1078 [label="DaysLeadtoEnroled <= 12.5\ngini = 0.1196\nsamples = 548\nvalue = [513, 35]"] ;
1077 -> 1078 ;
1079 [label="EnrolDate <= 15.5\ngini = 0.149\nsamples = 370\nvalue = [340, 30]"] ;
1078 -> 1079 ;
1080 [label="DaysEnroltoStart <= 62.5\ngini = 0.0971\nsamples = 215\nvalue = [204, 11]"] ;
1079 -> 1080 ;
1081 [label="Enddate <= 20170218.0\ngini = 0.0757\nsamples = 203\nvalue = [195, 8]"] ;
1080 -> 1081 ;
1082 [label="DaysLeadtoEnroled <= 3.5\ngini = 0.0672\nsamples = 201\nvalue = [194, 7]"] ;
1081 -> 1082 ;
1083 [label="Month <= 50.0\ngini = 0.0211\nsamples = 94\nvalue = [93, 1]"] ;
1082 -> 1083 ;
1084 [label="gini = 0.0\nsamples = 89\nvalue = [89, 0]"] ;
1083 -> 1084 ;
1085 [label="DaysEnroltoStart <= 27.0\ngini = 0.32\nsamples = 5\nvalue = [4, 1]"] ;
1083 -> 1085 ;
1086 [label="gini = 0.0\nsamples = 4\nvalue = [4, 0]"] ;
1085 -> 1086 ;
1087 [label="gini = 0.0\nsamples = 1\nvalue = [0, 1]"] ;
1085 -> 1087 ;
1088 [label="Metro_los-angeles <= 0.5\ngini = 0.1059\nsamples = 107\nvalue = [101, 6]"] ;
1082 -> 1088 ;
1089 [label="DaysLeadtoEnroled <= 4.5\ngini = 0.0548\nsamples = 71\nvalue = [69, 2]"] ;
1088 -> 1089 ;
1090 [label="Metro_singapore <= 0.5\ngini = 0.2778\nsamples = 12\nvalue = [10, 2]"] ;
1089 -> 1090 ;
1091 [label="Price <= 3375.0\ngini = 0.1653\nsamples = 11\nvalue = [10, 1]"] ;
1090 -> 1091 ;
1092 [label="ExpectedPayment_Unknown <= 0.5\ngini = 0.5\nsamples = 2\nvalue = [1, 1]"] ;
1091 -> 1092 ;
1093 [label="gini = 0.0\nsamples = 1\nvalue = [1, 0]"] ;
1092 -> 1093 ;
1094 [label="gini = 0.0\nsamples = 1\nvalue = [0, 1]"] ;
1092 -> 1094 ;
1095 [label="gini = 0.0\nsamples = 9\nvalue = [9, 0]"] ;
1091 -> 1095 ;
1096 [label="gini = 0.0\nsamples = 1\nvalue = [0, 1]"] ;
1090 -> 1096 ;
1097 [label="gini = 0.0\nsamples = 59\nvalue = [59, 0]"] ;
1089 -> 1097 ;
1098 [label="EnrolDate <= 12.5\ngini = 0.1975\nsamples = 36\nvalue = [32, 4]"] ;
1088 -> 1098 ;
1099 [label="gini = 0.0\nsamples = 19\nvalue = [19, 0]"] ;
1098 -> 1099 ;
1100 [label="DaysEnroltoStart <= 14.5\ngini = 0.3599\nsamples = 17\nvalue = [13, 4]"] ;
1098 -> 1100 ;
1101 [label="DaysLeadtoEnroled <= 5.0\ngini = 0.48\nsamples = 5\nvalue = [2, 3]"] ;
1100 -> 1101 ;
1102 [label="gini = 0.0\nsamples = 2\nvalue = [2, 0]"] ;
1101 -> 1102 ;
1103 [label="gini = 0.0\nsamples = 3\nvalue = [0, 3]"] ;
1101 -> 1103 ;
1104 [label="PhoneValid <= 0.5\ngini = 0.1528\nsamples = 12\nvalue = [11, 1]"] ;
1100 -> 1104 ;
1105 [label="gini = 0.0\nsamples = 1\nvalue = [0, 1]"] ;
1104 -> 1105 ;
1106 [label="gini = 0.0\nsamples = 11\nvalue = [11, 0]"] ;
1104 -> 1106 ;
1107 [label="EnrolDay_Sunday <= 0.5\ngini = 0.5\nsamples = 2\nvalue = [1, 1]"] ;
1081 -> 1107 ;
1108 [label="gini = 0.0\nsamples = 1\nvalue = [0, 1]"] ;
1107 -> 1108 ;
1109 [label="gini = 0.0\nsamples = 1\nvalue = [1, 0]"] ;
1107 -> 1109 ;
1110 [label="PardotCategory_Uncategorized <= 0.5\ngini = 0.375\nsamples = 12\nvalue = [9, 3]"] ;
1080 -> 1110 ;
1111 [label="EnrolDay_Sunday <= 0.5\ngini = 0.18\nsamples = 10\nvalue = [9, 1]"] ;
1110 -> 1111 ;
1112 [label="gini = 0.0\nsamples = 9\nvalue = [9, 0]"] ;
1111 -> 1112 ;
1113 [label="gini = 0.0\nsamples = 1\nvalue = [0, 1]"] ;
1111 -> 1113 ;
1114 [label="gini = 0.0\nsamples = 2\nvalue = [0, 2]"] ;
1110 -> 1114 ;
1115 [label="ApplicationType_referral <= 0.5\ngini = 0.2151\nsamples = 155\nvalue = [136, 19]"] ;
1079 -> 1115 ;
1116 [label="Month <= 3.5\ngini = 0.2064\nsamples = 154\nvalue = [136, 18]"] ;
1115 -> 1116 ;
1117 [label="DaysEnroltoStart <= 37.0\ngini = 0.4688\nsamples = 8\nvalue = [5, 3]"] ;
1116 -> 1117 ;
1118 [label="gini = 0.0\nsamples = 4\nvalue = [4, 0]"] ;
1117 -> 1118 ;
1119 [label="EnrolDay_Sunday <= 0.5\ngini = 0.375\nsamples = 4\nvalue = [1, 3]"] ;
1117 -> 1119 ;
1120 [label="gini = 0.0\nsamples = 3\nvalue = [0, 3]"] ;
1119 -> 1120 ;
1121 [label="gini = 0.0\nsamples = 1\nvalue = [1, 0]"] ;
1119 -> 1121 ;
1122 [label="Startdate <= 20150624.0\ngini = 0.1844\nsamples = 146\nvalue = [131, 15]"] ;
1116 -> 1122 ;
1123 [label="EnrolDay_Sunday <= 0.5\ngini = 0.2893\nsamples = 57\nvalue = [47, 10]"] ;
1122 -> 1123 ;
1124 [label="APAC <= 0.5\ngini = 0.1761\nsamples = 41\nvalue = [37, 4]"] ;
1123 -> 1124 ;
1125 [label="PardotCategory_CWE Purchase <= 0.5\ngini = 0.1388\nsamples = 40\nvalue = [37, 3]"] ;
1124 -> 1125 ;
1126 [label="DaysLeadtoEnroled <= 0.5\ngini = 0.0973\nsamples = 39\nvalue = [37, 2]"] ;
1125 -> 1126 ;
1127 [label="PardotCategory_Facebook Acquisition <= 0.5\ngini = 0.4444\nsamples = 3\nvalue = [2, 1]"] ;
1126 -> 1127 ;
1128 [label="gini = 0.0\nsamples = 1\nvalue = [0, 1]"] ;
1127 -> 1128 ;
1129 [label="gini = 0.0\nsamples = 2\nvalue = [2, 0]"] ;
1127 -> 1129 ;
1130 [label="Month <= 42.5\ngini = 0.054\nsamples = 36\nvalue = [35, 1]"] ;
1126 -> 1130 ;
1131 [label="gini = 0.0\nsamples = 27\nvalue = [27, 0]"] ;
1130 -> 1131 ;
1132 [label="Metro_los-angeles <= 0.5\ngini = 0.1975\nsamples = 9\nvalue = [8, 1]"] ;
1130 -> 1132 ;
1133 [label="gini = 0.0\nsamples = 7\nvalue = [7, 0]"] ;
1132 -> 1133 ;
1134 [label="Enddate <= 20150272.0\ngini = 0.5\nsamples = 2\nvalue = [1, 1]"] ;
1132 -> 1134 ;
1135 [label="gini = 0.0\nsamples = 1\nvalue = [0, 1]"] ;
1134 -> 1135 ;
1136 [label="gini = 0.0\nsamples = 1\nvalue = [1, 0]"] ;
1134 -> 1136 ;
1137 [label="gini = 0.0\nsamples = 1\nvalue = [0, 1]"] ;
1125 -> 1137 ;
1138 [label="gini = 0.0\nsamples = 1\nvalue = [0, 1]"] ;
1124 -> 1138 ;
1139 [label="EnrolHour <= 201502.5\ngini = 0.4688\nsamples = 16\nvalue = [10, 6]"] ;
1123 -> 1139 ;
1140 [label="EnrolDate <= 16.5\ngini = 0.32\nsamples = 10\nvalue = [8, 2]"] ;
1139 -> 1140 ;
1141 [label="Metro_chicago <= 0.5\ngini = 0.4444\nsamples = 3\nvalue = [1, 2]"] ;
1140 -> 1141 ;
1142 [label="gini = 0.0\nsamples = 2\nvalue = [0, 2]"] ;
1141 -> 1142 ;
1143 [label="gini = 0.0\nsamples = 1\nvalue = [1, 0]"] ;
1141 -> 1143 ;
1144 [label="gini = 0.0\nsamples = 7\nvalue = [7, 0]"] ;
1140 -> 1144 ;
1145 [label="ApplicationType_open house <= 0.5\ngini = 0.4444\nsamples = 6\nvalue = [2, 4]"] ;
1139 -> 1145 ;
1146 [label="gini = 0.0\nsamples = 3\nvalue = [0, 3]"] ;
1145 -> 1146 ;
1147 [label="EnrolDate <= 19.5\ngini = 0.4444\nsamples = 3\nvalue = [2, 1]"] ;
1145 -> 1147 ;
1148 [label="gini = 0.0\nsamples = 2\nvalue = [2, 0]"] ;
1147 -> 1148 ;
1149 [label="gini = 0.0\nsamples = 1\nvalue = [0, 1]"] ;
1147 -> 1149 ;
1150 [label="EnrolDate <= 21.5\ngini = 0.106\nsamples = 89\nvalue = [84, 5]"] ;
1122 -> 1150 ;
1151 [label="PardotCategory_Website <= 0.5\ngini = 0.0526\nsamples = 74\nvalue = [72, 2]"] ;
1150 -> 1151 ;
1152 [label="gini = 0.0\nsamples = 62\nvalue = [62, 0]"] ;
1151 -> 1152 ;
1153 [label="Month <= 38.0\ngini = 0.2778\nsamples = 12\nvalue = [10, 2]"] ;
1151 -> 1153 ;
1154 [label="gini = 0.0\nsamples = 9\nvalue = [9, 0]"] ;
1153 -> 1154 ;
1155 [label="ApplicationType_open house <= 0.5\ngini = 0.4444\nsamples = 3\nvalue = [1, 2]"] ;
1153 -> 1155 ;
1156 [label="gini = 0.0\nsamples = 2\nvalue = [0, 2]"] ;
1155 -> 1156 ;
1157 [label="gini = 0.0\nsamples = 1\nvalue = [1, 0]"] ;
1155 -> 1157 ;
1158 [label="Enddate <= 20160714.0\ngini = 0.32\nsamples = 15\nvalue = [12, 3]"] ;
1150 -> 1158 ;
1159 [label="Month <= 43.0\ngini = 0.142\nsamples = 13\nvalue = [12, 1]"] ;
1158 -> 1159 ;
1160 [label="gini = 0.0\nsamples = 11\nvalue = [11, 0]"] ;
1159 -> 1160 ;
1161 [label="DaysLeadtoEnroled <= 7.5\ngini = 0.5\nsamples = 2\nvalue = [1, 1]"] ;
1159 -> 1161 ;
1162 [label="gini = 0.0\nsamples = 1\nvalue = [0, 1]"] ;
1161 -> 1162 ;
1163 [label="gini = 0.0\nsamples = 1\nvalue = [1, 0]"] ;
1161 -> 1163 ;
1164 [label="gini = 0.0\nsamples = 2\nvalue = [0, 2]"] ;
1158 -> 1164 ;
1165 [label="gini = 0.0\nsamples = 1\nvalue = [0, 1]"] ;
1115 -> 1165 ;
1166 [label="EnrolDate <= 12.5\ngini = 0.0546\nsamples = 178\nvalue = [173, 5]"] ;
1078 -> 1166 ;
1167 [label="Metro_atlanta <= 0.5\ngini = 0.1327\nsamples = 56\nvalue = [52, 4]"] ;
1166 -> 1167 ;
1168 [label="EnrolDate <= 9.5\ngini = 0.1031\nsamples = 55\nvalue = [52, 3]"] ;
1167 -> 1168 ;
1169 [label="gini = 0.0\nsamples = 40\nvalue = [40, 0]"] ;
1168 -> 1169 ;
1170 [label="Month <= 34.5\ngini = 0.32\nsamples = 15\nvalue = [12, 3]"] ;
1168 -> 1170 ;
1171 [label="DaysLeadtoEnroled <= 32.0\ngini = 0.1528\nsamples = 12\nvalue = [11, 1]"] ;
1170 -> 1171 ;
1172 [label="gini = 0.0\nsamples = 10\nvalue = [10, 0]"] ;
1171 -> 1172 ;
