digraph Tree {
node [shape=box] ;
0 [label="DaysEnroltoStartdate <= 24.2754\ngini = 0.2944\nsamples = 28128\nvalue = [5045, 23083]"] ;
1 [label="DaysInvoicetoEnrol <= 38.5\ngini = 0.1899\nsamples = 15033\nvalue = [1597, 13436]"] ;
0 -> 1 [labeldistance=2.5, labelangle=45, headlabel="True"] ;
2 [label="gini = 0.1981\nsamples = 14019\nvalue = [1563, 12456]"] ;
1 -> 2 ;
3 [label="gini = 0.0648\nsamples = 1014\nvalue = [34, 980]"] ;
1 -> 3 ;
4 [label="DaysEnroltoStartdate <= 24.7754\ngini = 0.388\nsamples = 13095\nvalue = [3448, 9647]"] ;
0 -> 4 [labeldistance=2.5, labelangle=-45, headlabel="False"] ;
5 [label="gini = 0.0\nsamples = 2481\nvalue = [2481, 0]"] ;
4 -> 5 ;
6 [label="gini = 0.1656\nsamples = 10614\nvalue = [967, 9647]"] ;
4 -> 6 ;
}